{"learner":{"attributes":{"best_iteration":"120","best_score":"0.172925478979653","scikit_learn":"{\"_estimator_type\": \"regressor\"}"},"feature_names":["district","latitude","longitude","elevation_m","distance_to_river_m","landcover","soil_type","water_supply","electricity","road_quality","population_density_per_km2","built_up_percent","urban_rural","rainfall_7d_mm","monthly_rainfall_mm","drainage_index","ndvi","ndwi","water_presence_flag","historical_flood_count","infrastructure_score","nearest_hospital_km","nearest_evac_km","flood_occurrence_current_event","is_good_to_live","reason_not_good_to_live","distance_to_river_m_log1p","population_density_per_km2_log1p","rainfall_7d_mm_log1p","monthly_rainfall_mm_log1p","nearest_hospital_km_log1p","nearest_evac_km_log1p","elevation_m_yeojohnson","drainage_index_yeojohnson","ndvi_qmap","ndwi_qmap","built_up_percent_qmap","seasonal_index","terrain_roughness_index","socioeconomic_status_index","extreme_weather_index","hand_metric","slope_deg","water_occurrence_pct","lat_decimal_len","lon_decimal_len","latitude_freq","longitude_freq","elevation_m_freq","distance_to_river_m_freq","rainfall_7d_mm_freq","monthly_rainfall_mm_freq","inundation_area_sqm_freq","confirmed_severe_risk","no_flood_confirmed","inundation_per_capita","downstream_risk_count","month","is_yala","is_maha","zone_code","monsoon_impact","urban_runoff_potential","fluvial_risk_score_feat","soil_infiltration","soil_saturation_limit","pseudo_twi","flatness_index","in_cyclone_path","cyclone_vulnerability","slope_proxy","isolation_index","vulnerability","elevation_divergence","inundation_area_log","inundation_flood_interaction","river_rain_interaction","river_monthly_exposure","elev_rain_risk","water_signal","drainage_deficit","infra_resilience","evacuation_difficulty","inundation_density_risk","terrain_veg_risk","flood_pressure","is_repeat_flood_zone","rain_spike_ratio","confirmed_risk","is_historical_water","water_elevation_ratio","inundation_ratio","pooling_vulnerability","soil_drainage_saturation","district_target_enc","district_target_q25","district_target_q75","district_target_cnt","district_target_std","grid_id_target_enc","grid_id_target_q25","grid_id_target_q75","grid_id_target_cnt","downstream_sig_target_enc","downstream_sig_target_q25","downstream_sig_target_q75","downstream_sig_target_cnt","downstream_sig_target_std","downstream_quad_sig_target_enc","downstream_quad_sig_target_q25","downstream_quad_sig_target_q75","downstream_quad_sig_target_cnt","infra_deficit_sig_target_enc","infra_deficit_sig_target_q25","infra_deficit_sig_target_q75","infra_deficit_sig_target_cnt","landcover_target_enc","landcover_target_q25","landcover_target_q75","landcover_target_cnt","soil_type_target_enc","soil_type_target_q25","soil_type_target_q75","soil_type_target_cnt","water_supply_target_enc","water_supply_target_q25","water_supply_target_q75","water_supply_target_cnt","electricity_target_enc","electricity_target_q25","electricity_target_q75","electricity_target_cnt","road_quality_target_enc","road_quality_target_q25","road_quality_target_q75","road_quality_target_cnt","downstream_risk_count_target_enc","downstream_risk_count_target_q25","downstream_risk_count_target_q75","downstream_risk_count_target_cnt","grid_id_100_target_enc","grid_id_100_target_q25","grid_id_100_target_q75","grid_id_100_target_cnt","grid_id_050_target_enc","grid_id_050_target_q25","grid_id_050_target_q75","grid_id_050_target_cnt","grid_id_025_target_enc","grid_id_025_target_q25","grid_id_025_target_q75","grid_id_025_target_cnt","grid_id_012_target_enc","grid_id_012_target_q25","grid_id_012_target_q75","grid_id_012_target_cnt"],"feature_types":["int","float","float","float","float","int","int","int","int","int","float","float","int","float","float","float","float","float","int","float","float","float","float","int","int","int","float","float","float","float","float","float","float","float","float","float","float","float","float","float","float","float","float","float","int","int","float","float","float","float","float","float","float","int","int","float","int","int","int","int","int","float","float","float","float","float","float","float","int","float","float","float","float","float","float","float","float","float","float","float","float","float","float","float","float","float","int","float","int","int","float","float","float","float","float","float","float","float","float","float","float","float","float","float","float","float","float","float","float","float","float","float","float","float","float","float","float","float","float","float","float","float","float","float","float","float","float","float","float","float","float","float","float","float","float","float","float","float","float","float","float","float","float","float","float","float","float","float","float","float","float","float","float","float","float","float"],"gradient_booster":{"model":{"cats":{"enc":[],"feature_segments":[],"sorted_idx":[]},"gbtree_model_param":{"num_parallel_tree":"1","num_trees":"221"},"iteration_indptr":[0,1,2,3,4,5,6,7,8,9,10,11,12,13,14,15,16,17,18,19,20,21,22,23,24,25,26,27,28,29,30,31,32,33,34,35,36,37,38,39,40,41,42,43,44,45,46,47,48,49,50,51,52,53,54,55,56,57,58,59,60,61,62,63,64,65,66,67,68,69,70,71,72,73,74,75,76,77,78,79,80,81,82,83,84,85,86,87,88,89,90,91,92,93,94,95,96,97,98,99,100,101,102,103,104,105,106,107,108,109,110,111,112,113,114,115,116,117,118,119,120,121,122,123,124,125,126,127,128,129,130,131,132,133,134,135,136,137,138,139,140,141,142,143,144,145,146,147,148,149,150,151,152,153,154,155,156,157,158,159,160,161,162,163,164,165,166,167,168,169,170,171,172,173,174,175,176,177,178,179,180,181,182,183,184,185,186,187,188,189,190,191,192,193,194,195,196,197,198,199,200,201,202,203,204,205,206,207,208,209,210,211,212,213,214,215,216,217,218,219,220,221],"tree_info":[0,0,0,0,0,0,0,0,0,0,0,0,0,0,0,0,0,0,0,0,0,0,0,0,0,0,0,0,0,0,0,0,0,0,0,0,0,0,0,0,0,0,0,0,0,0,0,0,0,0,0,0,0,0,0,0,0,0,0,0,0,0,0,0,0,0,0,0,0,0,0,0,0,0,0,0,0,0,0,0,0,0,0,0,0,0,0,0,0,0,0,0,0,0,0,0,0,0,0,0,0,0,0,0,0,0,0,0,0,0,0,0,0,0,0,0,0,0,0,0,0,0,0,0,0,0,0,0,0,0,0,0,0,0,0,0,0,0,0,0,0,0,0,0,0,0,0,0,0,0,0,0,0,0,0,0,0,0,0,0,0,0,0,0,0,0,0,0,0,0,0,0,0,0,0,0,0,0,0,0,0,0,0,0,0,0,0,0,0,0,0,0,0,0,0,0,0,0,0,0,0,0,0,0,0,0,0,0,0,0,0,0,0,0,0,0,0,0,0,0,0],"trees":[{"base_weights":[-5.246773E-1,-9.748111E-1,1.5370019E-1,-0E0,-2.9693486E-2,-3.2544377E-1,3.8121548E-1,-1E-2,1.2E-2,-2.4666667E-2,2.0481928E-1,-1E-2,4.0056023E-1,5.675676E-1,-4E-2,4.421365E-1,-1.6666667E-1,2.0624999E-2,-0E0,-1.8181819E-1,1.2E-2,3.6121672E-1,6.666667E-1,-3.75E-1,-0E0,-1.39999995E-2,-0E0,1.2E-1,4.375E-1,-0E0,7.027027E-1,-0E0,-1.5E-2,-0E0,7.5E-3,-1.2E-2,3.3333332E-3,7.5E-3,-1E-2,1.0609755E-2,2.2499999E-2,2.2285715E-2,-0E0],"categories":[],"categories_nodes":[],"categories_segments":[],"categories_sizes":[],"default_left":[0,0,0,0,0,0,0,0,0,0,0,0,0,0,0,0,0,0,0,0,0,0,0,0,0,0,0,0,0,0,0,0,0,0,0,0,0,0,0,0,0,0,0],"id":0,"left_children":[1,3,5,7,-1,9,11,-1,-1,-1,13,-1,15,17,19,21,23,-1,-1,25,-1,27,29,31,33,-1,35,37,39,-1,41,-1,-1,-1,-1,-1,-1,-1,-1,-1,-1,-1,-1],"loss_changes":[4.0681677E2,1.2637939E1,6.0269264E1,5.533334E0,0E0,4.923336E1,7.0830917E0,0E0,0E0,0E0,1.0127983E1,0E0,1.0097862E1,3.685812E0,5.1418185E0,5.446907E0,2.4166667E0,0E0,0E0,2.951515E0,0E0,4.2995453E0,2.0180206E0,1.25E0,1.5E0,0E0,3.977778E0,6.44E0,4.4268265E0,0E0,2.2486534E0,0E0,0E0,0E0,0E0,0E0,0E0,0E0,0E0,0E0,0E0,0E0,0E0],"parents":[2147483647,0,0,1,1,2,2,3,3,5,5,6,6,10,10,12,12,13,13,14,14,15,15,16,16,19,19,21,21,22,22,23,23,24,24,26,26,27,27,28,28,30,30],"right_children":[2,4,6,8,-1,10,12,-1,-1,-1,14,-1,16,18,20,22,24,-1,-1,26,-1,28,30,32,34,-1,36,38,40,-1,42,-1,-1,-1,-1,-1,-1,-1,-1,-1,-1,-1,-1],"split_conditions":[4.8753572E-1,7.071787E-1,4.738E-1,4.84175E-1,-8.9406965E-10,4.8668182E-1,4.596909E-1,-2.8770007E-3,5.8919988E-3,-3.072001E-3,2E0,-1.0026E-2,1.4746281E0,3.6969656E3,8.9297503E-1,6.15049E-1,4.2176332E-2,5.9294985E-3,-1.3110011E-3,4.9234286E-1,4.4519994E-3,5.494017E-2,4.56E1,1.82E2,8.619208E0,-3.7980007E-3,5.7189584E-1,6.5219104E-1,5.196526E-1,-7.590012E-4,2.6137395E0,2.017499E-3,-2.9655013E-3,-8.38501E-4,2.7704993E-3,-1.8967509E-3,1.2449983E-3,1.0079992E-3,-1.1670014E-3,1.7009987E-3,6.4949994E-3,3.7829983E-3,8.879989E-4],"split_indices":[114,38,148,154,0,154,154,0,0,0,18,0,84,62,38,118,85,0,0,132,0,40,14,14,74,0,105,142,99,0,30,0,0,0,0,0,0,0,0,0,0,0,0],"split_type":[0,0,0,0,0,0,0,0,0,0,0,0,0,0,0,0,0,0,0,0,0,0,0,0,0,0,0,0,0,0,0,0,0,0,0,0,0,0,0,0,0,0,0],"sum_hessian":[1.313E3,7.9E2,5.23E2,1.1E1,7.79E2,1.65E2,3.58E2,5E0,6E0,8.6E1,7.9E1,5E0,3.53E2,3.3E1,4.6E1,3.33E2,2E1,2.8E1,5E0,4E1,6E0,2.59E2,7.4E1,1.2E1,8E0,1.1E1,2.9E1,7.1E1,1.88E2,4E0,7E1,4E0,8E0,4E0,4E0,6E0,2.3E1,6E1,1.1E1,1.6E2,2.8E1,6.6E1,4E0],"tree_param":{"num_deleted":"0","num_feature":"156","num_nodes":"43","size_leaf_vector":"1"}},{"base_weights":[-5.306749E-1,-9.770701E-1,1.3957936E-1,-2.9767742E-2,-0E0,-9.589041E-2,4.3829787E-1,7.5E-3,-0E0,-5.102041E-1,-4.048583E-3,5.09434E-1,-1.1111111E-1,-7.0731705E-1,1.6666667E-1,-1.594203E-1,6.818182E-1,-3.2258064E-2,6E-1,7.5E-3,-3.043478E-1,-0E0,-2.3513513E-2,-0E0,7.5E-3,-6.666667E-1,-0E0,-0E0,2.3684211E-2,-1.2857143E-2,1.4285715E-1,3.3333334E-1,7.0731705E-1,-1.3333333E-2,-0E0,-7.7272725E-1,-0E0,-3.6842105E-1,1.007752E-1,-0E0,2.9411766E-1,-1.6666667E-1,4.4827586E-1,-0E0,7.522124E-1,-2.5135133E-2,-2.7272727E-3,-1.551724E-2,-0E0,-1.8000001E-2,6.1016944E-3,-0E0,1.5E-2,-0E0,-7.5E-3,-0E0,1.5555555E-2,7.5E-3,-0E0,2.3394495E-2,-0E0],"categories":[],"categories_nodes":[],"categories_segments":[],"categories_sizes":[],"default_left":[0,0,0,0,0,0,0,0,0,0,0,0,0,0,0,0,0,0,0,0,0,0,0,0,0,0,0,0,0,0,0,0,0,0,0,0,0,0,0,0,0,0,0,0,0,0,0,0,0,0,0,0,0,0,0,0,0,0,0,0,0],"id":1,"left_children":[1,3,5,-1,7,9,11,-1,-1,13,15,17,19,21,23,25,27,29,31,-1,33,-1,-1,-1,-1,35,37,-1,-1,-1,39,41,43,-1,-1,45,-1,47,49,-1,51,53,55,57,59,-1,-1,-1,-1,-1,-1,-1,-1,-1,-1,-1,-1,-1,-1,-1,-1],"loss_changes":[3.947189E2,1.3694397E1,3.9218754E1,0E0,1.5E0,1.1747667E1,1.0936516E1,0E0,0E0,9.545546E0,2.9060125E1,1.2104687E1,4.0700483E0,2.5234032E0,5E-1,1.8101448E1,3.6602879E0,5.124424E0,4.0325165E0,0E0,1.985508E0,0E0,0E0,0E0,0E0,5.363634E0,8.344757E0,0E0,0E0,0E0,1.647059E0,5.7816105E0,2.5810623E0,0E0,0E0,4.1523552E-1,0E0,3.1960073E0,1.1781738E1,0E0,2.352941E0,5E-1,3.1443176E0,1.5E0,2.4567642E0,0E0,0E0,0E0,0E0,0E0,0E0,0E0,0E0,0E0,0E0,0E0,0E0,0E0,0E0,0E0,0E0],"parents":[2147483647,0,0,1,1,2,2,4,4,5,5,6,6,9,9,10,10,11,11,12,12,13,13,14,14,15,15,16,16,17,17,18,18,20,20,25,25,26,26,30,30,31,31,32,32,35,35,37,37,38,38,40,40,41,41,42,42,43,43,44,44],"right_children":[2,4,6,-1,8,10,12,-1,-1,14,16,18,20,22,24,26,28,30,32,-1,34,-1,-1,-1,-1,36,38,-1,-1,-1,40,42,44,-1,-1,46,-1,48,50,-1,52,54,56,58,60,-1,-1,-1,-1,-1,-1,-1,-1,-1,-1,-1,-1,-1,-1,-1,-1],"split_conditions":[4.2556953E1,5E0,4.6515834E-1,-8.9406965E-10,4E0,4.593815E-1,7.52E2,3.5885086E-3,-6.205531E-3,4.6724546E-1,4.7363636E-1,4.738E-1,7.0114822E0,2.7006228E0,8.0504135E1,1.7917595E0,4.670625E-1,1.7917595E0,1.2355595E-1,2.4644986E-3,1.33E3,-4.547364E-3,-5.0888415E-3,9.967043E-4,2.809131E-3,6.870438E-1,6.1217403E-1,2.722739E-3,5.345113E-3,-1.3317686E-3,-8.289638E-2,5.961268E-1,3.4608182E-1,-4.512031E-3,9.062968E-3,5.031111E-1,1.332659E-3,4.738E-1,4.6932903E-1,-4.3231356E-3,2.0478957E0,4E0,3.6635616E0,3.5909985E1,6.9E1,-3.0938413E-3,-1.7258414E-3,-2.3348862E-3,2.6009693E-3,-6.354001E-3,1.0276343E-3,-3.8340308E-3,1.7969691E-3,2.9084543E-3,-1.3802415E-3,-3.3410331E-3,2.1762585E-3,2.9759689E-3,-4.6282657E-3,3.692968E-3,1.6796887E-4],"split_indices":[67,5,149,0,7,94,10,0,0,153,153,153,26,71,2,151,94,151,40,0,10,0,0,0,0,39,105,0,0,0,35,134,125,0,0,99,0,104,112,0,66,7,119,76,20,0,0,0,0,0,0,0,0,0,0,0,0,0,0,0,0],"split_type":[0,0,0,0,0,0,0,0,0,0,0,0,0,0,0,0,0,0,0,0,0,0,0,0,0,0,0,0,0,0,0,0,0,0,0,0,0,0,0,0,0,0,0,0,0,0,0,0,0,0,0,0,0,0,0,0,0,0,0,0,0],"sum_hessian":[1.3E3,7.81E2,5.19E2,7.71E2,1E1,2.88E2,2.31E2,4E0,6E0,4.5E1,2.43E2,2.08E2,2.3E1,3.7E1,8E0,2.03E2,4E1,2.7E1,1.81E2,4E0,1.9E1,4E0,3.3E1,4E0,4E0,4.4E1,1.59E2,6E0,3.4E1,1E1,1.7E1,6.2E1,1.19E2,1.4E1,5E0,4E1,4E0,3.4E1,1.25E2,4E0,1.3E1,8E0,5.4E1,1E1,1.09E2,3.3E1,7E0,2.5E1,9E0,1.1E1,1.14E2,5E0,8E0,4E0,4E0,4E0,5E1,4E0,6E0,1.05E2,4E0],"tree_param":{"num_deleted":"0","num_feature":"156","num_nodes":"61","size_leaf_vector":"1"}},{"base_weights":[-5.17611E-1,1.502783E-1,-9.844358E-1,-5.625E-1,1.9765167E-1,-2.9764704E-2,-0E0,-2.1428572E-2,-6.666667E-2,-2.3793103E-2,2.5925925E-1,-0E0,-8.181818E-3,6.666667E-2,3.9285713E-1,-5.4545456E-1,3.5135135E-1,4.1911766E-1,-1.6666667E-1,-6.4912283E-1,-0E0,-1.2E-1,4.488189E-1,6.793893E-1,1.5862069E-1,-7.5E-3,-0E0,-2.7272727E-3,-2.5384614E-2,-3.3333332E-3,7.5E-3,7.5E-3,-1E-2,1.5263158E-2,-0E0,2.6470589E-2,1.5E-2,5.2631577E-4,1.6285716E-2],"categories":[],"categories_nodes":[],"categories_segments":[],"categories_sizes":[],"default_left":[0,0,0,0,0,0,0,0,0,0,0,0,0,0,0,0,0,0,0,0,0,0,0,0,0,0,0,0,0,0,0,0,0,0,0,0,0,0,0],"id":2,"left_children":[1,3,5,7,9,-1,-1,-1,11,-1,13,-1,-1,15,17,19,21,23,25,27,29,31,33,35,37,-1,-1,-1,-1,-1,-1,-1,-1,-1,-1,-1,-1,-1,-1],"loss_changes":[4.119227E2,2.035477E1,5.8911743E0,1.5297623E0,3.4364075E1,0E0,0E0,0E0,1.5757576E0,0E0,1.2282013E1,0E0,0E0,4.0293858E1,5.670166E0,4.7958508E0,8.542276E0,1.8010082E1,5E-1,5.239111E0,2.0555556E0,4.326667E0,4.165907E0,3.0520859E0,8.308218E0,0E0,0E0,0E0,0E0,0E0,0E0,0E0,0E0,0E0,0E0,0E0,0E0,0E0,0E0],"parents":[2147483647,0,0,1,1,2,2,3,3,4,4,8,8,10,10,13,13,14,14,15,15,16,16,17,17,18,18,19,19,20,20,21,21,22,22,23,23,24,24],"right_children":[2,4,6,8,10,-1,-1,-1,12,-1,14,-1,-1,16,18,20,22,24,26,28,30,32,34,36,38,-1,-1,-1,-1,-1,-1,-1,-1,-1,-1,-1,-1,-1,-1],"split_conditions":[6.340191E-1,4.7393262E-1,5E0,5E0,4.7393337E-1,-8.9406965E-10,-3.5358666E-5,-8.1428755E-3,5E0,-8.437026E-3,4.883125E-1,1.8303327E-3,-4.8551764E-3,8.163888E1,1.24922E4,1E0,3E0,1.609438E0,3.77E1,1.6519675E-1,4.8213637E-1,3.6790612E-1,7.35E2,1.0986123E0,8.6919594E-1,-2.4686493E-3,-4.3768866E-4,-1.3948702E-3,-1.3478932E-3,-1.8161765E-3,3.303574E-4,1.4690767E-3,-1.5565287E-3,2.6866803E-3,-4.1066943E-4,4.431471E-3,3.6165265E-3,3.081393E-4,2.3511394E-3],"split_indices":[69,150,5,7,154,0,0,0,5,0,154,0,0,2,62,19,57,155,11,40,154,39,10,155,37,0,0,0,0,0,0,0,0,0,0,0,0,0,0],"split_type":[0,0,0,0,0,0,0,0,0,0,0,0,0,0,0,0,0,0,0,0,0,0,0,0,0,0,0,0,0,0,0,0,0,0,0,0,0,0,0],"sum_hessian":[1.302E3,5.35E2,7.67E2,2.8E1,5.07E2,7.61E2,6E0,1.7E1,1.1E1,2.5E1,4.82E2,4E0,7E0,2.06E2,2.76E2,6.2E1,1.44E2,2.68E2,8E0,5.3E1,9E0,2.1E1,1.23E2,1.27E2,1.41E2,4E0,4E0,1.8E1,3.5E1,5E0,4E0,4E0,1.7E1,1.1E2,1.3E1,4.7E1,8E1,1.1E2,3.1E1],"tree_param":{"num_deleted":"0","num_feature":"156","num_nodes":"39","size_leaf_vector":"1"}},{"base_weights":[-5.159332E-1,1.4130434E-1,-9.87013E-1,-7.1929824E-1,2.4248497E-1,-2.9765014E-2,-0E0,-0E0,-2.3207547E-2,-2.1100917E-1,3.7055838E-1,1.2857143E-2,-3.131313E-1,4.0266666E-1,-1.3043478E-1,-2.1428572E-2,-0E0,2.9241878E-1,6.666667E-1,-0E0,-2.9411766E-1,3.3333334E-1,-1.8181819E-1,4.2196533E-1,5.5555556E-2,-3.3333332E-3,7.3195875E-1,-1.3636364E-2,-0E0,-0E0,1.8000001E-2,-0E0,-1.8000001E-2,8.421052E-3,1.8571429E-2,-2.3076923E-3,1.2352941E-2,2.4352942E-2,-0E0],"categories":[],"categories_nodes":[],"categories_segments":[],"categories_sizes":[],"default_left":[0,0,0,0,0,0,0,0,0,0,0,0,0,0,0,0,0,0,0,0,0,0,0,0,0,0,0,0,0,0,0,0,0,0,0,0,0,0,0],"id":3,"left_children":[1,3,5,7,9,-1,-1,-1,-1,11,13,-1,15,17,19,-1,21,23,25,-1,27,29,31,33,35,-1,37,-1,-1,-1,-1,-1,-1,-1,-1,-1,-1,-1,-1],"loss_changes":[4.127665E2,5.1092087E1,3.9378662E0,2.4429016E0,3.097038E1,0E0,0E0,0E0,0E0,9.548061E0,7.7426186E0,0E0,1.3326119E1,1.0442261E1,1.7340155E0,0E0,5.848485E0,8.191296E0,7.4524612E0,0E0,1.44385E0,4.133334E0,5.618182E0,4.232979E0,7.6254396E0,0E0,4.361923E0,0E0,0E0,0E0,0E0,0E0,0E0,0E0,0E0,0E0,0E0,0E0,0E0],"parents":[2147483647,0,0,1,1,2,2,3,3,4,4,9,9,10,10,12,12,13,13,14,14,16,16,17,17,18,18,20,20,21,21,22,22,23,23,24,24,26,26],"right_children":[2,4,6,8,10,-1,-1,-1,-1,12,14,-1,16,18,20,-1,22,24,26,-1,28,30,32,34,36,-1,38,-1,-1,-1,-1,-1,-1,-1,-1,-1,-1,-1,-1],"split_conditions":[6.576779E-1,4.7393337E-1,5.21E2,2.4871376E0,4.714E-1,-8.9406965E-10,-9.08263E-5,-5.9947367E-3,-5.8276826E-3,2.1897624E0,1.4746281E0,6.8213246E-3,4.8668182E-1,8.945333E0,9.16E1,-1.5007067E-3,4.1453835E-1,8.106816E0,5.257895E-2,4.0952126E-3,2.310592E-1,2.6725645E0,3.4666145E0,5.931443E-1,4.341561E-1,-3.9374827E-5,9.546884E0,-1.478109E-3,-1.961039E-4,-1.8383601E-3,3.0783247E-3,2.278161E-4,-6.2600477E-3,8.6785015E-4,4.1527855E-3,-5.577774E-4,3.467041E-3,3.392685E-3,5.59659E-4],"split_indices":[69,154,10,71,148,0,0,0,0,80,84,0,154,74,65,0,39,75,72,0,107,66,66,142,117,0,75,0,0,0,0,0,0,0,0,0,0,0,0],"split_type":[0,0,0,0,0,0,0,0,0,0,0,0,0,0,0,0,0,0,0,0,0,0,0,0,0,0,0,0,0,0,0,0,0,0,0,0,0,0,0],"sum_hessian":[1.314E3,5.48E2,7.66E2,5.3E1,4.95E2,7.62E2,4E0,4E0,4.9E1,1.05E2,3.9E2,1E1,9.5E1,3.71E2,1.9E1,3.8E1,5.7E1,2.73E2,9.8E1,6E0,1.3E1,1.7E1,4E1,1.69E2,1.04E2,5E0,9.3E1,7E0,6E0,6E0,1.1E1,2.9E1,1.1E1,1.1E2,5.9E1,7.4E1,3E1,8.1E1,1.2E1],"tree_param":{"num_deleted":"0","num_feature":"156","num_nodes":"39","size_leaf_vector":"1"}},{"base_weights":[-5.237366E-1,1.0830325E-1,-9.867725E-1,-9.677419E-2,3.1899643E-1,-0E0,-2.9760636E-2,-5.0877196E-1,-0E0,1.7006803E-1,4.5588234E-1,-7.0731705E-1,-0E0,-6.1538464E-1,3.2894737E-1,8.2706764E-2,2E-2,-0E0,6.494845E-1,-0E0,-2.3513513E-2,-8.181818E-3,2.3076923E-1,-0E0,-6.666667E-1,8.163265E-2,6.896552E-1,-2.857143E-1,1.9266056E-1,-3E-1,1.8518518E-1,7.468355E-1,9.090909E-2,1E-2,-0E0,-7.058824E-1,-0E0,-1.3333334E-1,4.2857143E-1,7.407407E-1,-0E0,-4.5454547E-1,-0E0,-1.6666667E-1,2.4752475E-1,-0E0,-1.7142858E-2,1.3636364E-2,-0E0,7.837838E-1,-0E0,3.75E-1,-6E-3,-2.3898305E-2,-0E0,-1.39999995E-2,-0E0,-0E0,1.7272726E-2,2.4545453E-2,4.2857146E-3,-0E0,-1.6666668E-2,-7.5E-3,-0E0,1.2352941E-2,1.1111111E-3,6E-3,-1E-2,-0E0,2.4782607E-2,1.5E-2,-0E0],"categories":[],"categories_nodes":[],"categories_segments":[],"categories_sizes":[],"default_left":[0,0,0,0,0,0,0,0,0,0,0,0,0,0,0,0,0,0,0,0,0,0,0,0,0,0,0,0,0,0,0,0,0,0,0,0,0,0,0,0,0,0,0,0,0,0,0,0,0,0,0,0,0,0,0,0,0,0,0,0,0,0,0,0,0,0,0,0,0,0,0,0,0],"id":4,"left_children":[1,3,5,7,9,-1,-1,11,13,15,17,19,21,23,25,27,-1,29,31,-1,-1,-1,33,-1,35,37,39,41,43,45,47,49,51,-1,-1,53,-1,55,57,59,-1,61,-1,63,65,-1,-1,-1,67,69,-1,71,-1,-1,-1,-1,-1,-1,-1,-1,-1,-1,-1,-1,-1,-1,-1,-1,-1,-1,-1,-1,-1],"loss_changes":[3.8668002E2,2.573526E1,3.9365845E0,1.37894745E1,5.3535385E0,0E0,0E0,6.5519886E0,4.9763157E1,6.975295E0,1.3427227E1,2.5234032E0,3.5244756E0,2.666668E0,1.3561262E1,7.004484E0,0E0,4.6666665E0,4.0806313E0,0E0,0E0,0E0,7.179489E-1,0E0,2.0392113E0,1.0048979E1,2.2477665E0,2.9350646E0,3.3617039E0,3.857143E0,2.4242425E0,1.5439568E0,4.4045453E0,0E0,0E0,3.921238E0,0E0,3.5333333E0,3.8138533E0,9.918213E-1,0E0,1.4141421E0,0E0,5E-1,3.3381224E0,0E0,0E0,0E0,3.7333336E0,1.7967072E0,0E0,1.25E0,0E0,0E0,0E0,0E0,0E0,0E0,0E0,0E0,0E0,0E0,0E0,0E0,0E0,0E0,0E0,0E0,0E0,0E0,0E0,0E0,0E0],"parents":[2147483647,0,0,1,1,2,2,3,3,4,4,7,7,8,8,9,9,10,10,11,11,12,12,13,13,14,14,15,15,17,17,18,18,22,22,24,24,25,25,26,26,27,27,28,28,29,29,30,30,31,31,32,32,35,35,37,37,38,38,39,39,41,41,43,43,44,44,48,48,49,49,51,51],"right_children":[2,4,6,8,10,-1,-1,12,14,16,18,20,22,24,26,28,-1,30,32,-1,-1,-1,34,-1,36,38,40,42,44,46,48,50,52,-1,-1,54,-1,56,58,60,-1,62,-1,64,66,-1,-1,-1,68,70,-1,72,-1,-1,-1,-1,-1,-1,-1,-1,-1,-1,-1,-1,-1,-1,-1,-1,-1,-1,-1,-1,-1],"split_conditions":[6.576779E-1,4.386172E-1,-1.1426578E0,4.738E-1,1E0,-1.8397964E-3,-8.9406965E-10,6.5219104E-1,4.883125E-1,4.786727E-1,4.713E-1,1.9890381E0,1.7312296E-1,2.7893403E0,4.7146365E-1,5.202227E-1,5.1000575E-3,6.003542E-1,3.51E1,9.3144935E-4,-3.370968E-3,-3.6633986E-3,7.294356E0,-4.1621982E-4,4.6301794E-1,5.0492343E-2,4.3633334E2,5.665184E-1,1.9459101E0,3E0,4.56E2,9.85372E0,2E0,4.794966E-3,2.0302078E-3,6.4150968E0,8.76823E-5,3.7539285E-1,5.13908E-1,7.044033E0,2.3741125E-4,2E0,3.1341629E-3,3E0,6.653841E-1,2.3427486E-4,-2.156766E-3,8.007148E-3,4.507875E-1,4.738E-1,2.7751243E-3,1.3534938E0,-6.3389004E-4,-3.2059085E-3,-7.070222E-4,-6.153832E-3,-1.5779883E-4,-1.0382581E-3,2.4691396E-3,6.60069E-3,3.0973836E-4,9.3142164E-4,-1.4395684E-3,-4.430401E-3,-7.977158E-5,1.1831706E-3,5.0864473E-4,1.9511693E-3,-1.5332445E-3,1.071243E-3,3.5172915E-3,7.5141904E-3,4.3153123E-4],"split_indices":[69,100,35,124,49,0,0,142,154,153,153,82,84,80,153,84,0,96,11,0,0,0,1,0,109,85,65,91,151,45,10,74,18,0,0,27,0,153,38,143,0,9,0,8,38,0,0,0,153,120,0,91,0,0,0,0,0,0,0,0,0,0,0,0,0,0,0,0,0,0,0,0,0],"split_type":[0,0,0,0,0,0,0,0,0,0,0,0,0,0,0,0,0,0,0,0,0,0,0,0,0,0,0,0,0,0,0,0,0,0,0,0,0,0,0,0,0,0,0,0,0,0,0,0,0,0,0,0,0,0,0,0,0,0,0,0,0,0,0,0,0,0,0,0,0,0,0,0,0],"sum_hessian":[1.302E3,5.5E2,7.52E2,2.75E2,2.75E2,4E0,7.48E2,5.3E1,2.22E2,1.43E2,1.32E2,3.7E1,1.6E1,7.4E1,1.48E2,1.29E2,1.4E1,3.9E1,9.3E1,4E0,3.3E1,7E0,9E0,6E0,6.8E1,9.4E1,5.4E1,2.4E1,1.05E2,1.6E1,2.3E1,7.5E1,1.8E1,5E0,4E0,6.4E1,4E0,5.6E1,3.8E1,5E1,4E0,1.8E1,6E0,8E0,9.7E1,6E0,1E1,7E0,1.6E1,7E1,5E0,1.2E1,6E0,5.5E1,9E0,1.1E1,4.5E1,9E0,2.9E1,4E1,1E1,4E0,1.4E1,4E0,4E0,4.7E1,5E1,1.1E1,5E0,5E0,6.5E1,8E0,4E0],"tree_param":{"num_deleted":"0","num_feature":"156","num_nodes":"73","size_leaf_vector":"1"}},{"base_weights":[-5.329341E-1,-9.8475224E-1,1.1030742E-1,-2.9770114E-2,-0E0,-2.0274915E-1,4.5864663E-1,-2.5862068E-2,-2.9535865E-2,2.4571429E-1,8.105263E-1,5.5555556E-2,-3.114754E-1,3.2885906E-1,-1.3333334E-1,8.426966E-1,-0E0,-3.529412E-1,1.6E-1,1.3043478E-1,-5.714286E-1,2.3664123E-1,2.1818181E-2,-3.0769232E-1,7.5E-3,-0E0,2.6428571E-2,-1.8571429E-2,-0E0,2.2627737E-1,-2.9411766E-1,-3.3333332E-3,3.3333334E-1,-0E0,-6.315789E-1,1.23809524E-1,5.3333336E-1,-0E0,-5E-1,-1E-2,1E-2,1.3043478E-3,1.5306122E-2,-1.1538462E-2,-0E0,1.5E-2,-0E0,-2.1428572E-2,-4.2857146E-3,1.5714286E-2,-0E0,2.0399999E-2,-0E0,-0E0,-1.8749999E-2],"categories":[],"categories_nodes":[],"categories_segments":[],"categories_sizes":[],"default_left":[0,0,0,0,0,0,0,0,0,0,0,0,0,0,0,0,0,0,0,0,0,0,0,0,0,0,0,0,0,0,0,0,0,0,0,0,0,0,0,0,0,0,0,0,0,0,0,0,0,0,0,0,0,0,0],"id":5,"left_children":[1,3,5,-1,-1,7,9,-1,11,13,15,17,19,21,23,25,-1,27,29,31,33,35,-1,37,-1,-1,-1,-1,39,41,43,-1,45,-1,47,49,51,-1,53,-1,-1,-1,-1,-1,-1,-1,-1,-1,-1,-1,-1,-1,-1,-1,-1],"loss_changes":[3.9271112E2,7.8933716E0,6.3392685E1,0E0,0E0,3.4103428E1,1.9411732E1,0E0,7.6168175E0,6.947627E0,9.2041016E-1,9.34928E0,9.749109E0,5.398369E0,4.125641E0,2.141243E0,0E0,4.876752E0,6.086767E0,2.9758453E0,1.6842079E0,4.488984E0,0E0,3.3076925E0,0E0,0E0,0E0,0E0,5E0,7.2240357E0,8.1447935E-1,0E0,1.6666667E0,0E0,3.1579208E-1,5.752381E0,3.6133337E0,0E0,1.75E0,0E0,0E0,0E0,0E0,0E0,0E0,0E0,0E0,0E0,0E0,0E0,0E0,0E0,0E0,0E0,0E0],"parents":[2147483647,0,0,1,1,2,2,5,5,6,6,8,8,9,9,10,10,11,11,12,12,13,13,14,14,15,15,17,17,18,18,19,19,20,20,21,21,23,23,28,28,29,29,30,30,32,32,34,34,35,35,36,36,38,38],"right_children":[2,4,6,-1,-1,8,10,-1,12,14,16,18,20,22,24,26,-1,28,30,32,34,36,-1,38,-1,-1,-1,-1,40,42,44,-1,46,-1,48,50,52,-1,54,-1,-1,-1,-1,-1,-1,-1,-1,-1,-1,-1,-1,-1,-1,-1,-1],"split_conditions":[1E0,4.9153167E-1,4.738E-1,-8.9406965E-10,1.8582281E-3,1.0986123E0,4.7935453E-1,-3.3576589E-3,6.290534E-1,3.49E1,4.0211456E1,4.9538332E-1,-4.1E-2,3.6116806E1,4.5E-1,3.211131E1,6.4553837E-3,4.2481562E-1,2.3243465E0,4.00975E-1,8.016602E1,9.156518E0,5.225526E-3,4E0,2.907417E-3,2.9081332E-3,5.0537186E-3,-2.1410303E-3,1.2383742E0,1.06720544E-1,2.832625E0,-9.010334E-3,4.7114464E1,1.8973857E-4,6.15062E-1,7.424641E0,6.2576675E0,8.304146E-4,-3.9E-2,-3.1097317E-3,8.0428313E-4,2.0184874E-4,1.8577864E-3,-1.4290317E-3,-2.5874285E-3,9.686204E-3,-1.8823578E-3,-3.3707614E-3,-1.4706744E-3,3.7513159E-3,1.0831252E-4,3.4117724E-3,-5.3452848E-5,8.4550826E-5,-4.8226205E-4],"split_indices":[0,116,153,0,0,155,153,0,134,11,76,150,17,76,16,77,0,117,30,109,2,74,0,5,0,0,0,0,30,85,30,0,67,0,105,26,27,0,16,0,0,0,0,0,0,0,0,0,0,0,0,0,0,0,0],"split_type":[0,0,0,0,0,0,0,0,0,0,0,0,0,0,0,0,0,0,0,0,0,0,0,0,0,0,0,0,0,0,0,0,0,0,0,0,0,0,0,0,0,0,0,0,0,0,0,0,0,0,0,0,0,0,0],"sum_hessian":[1.332E3,7.83E2,5.49E2,7.79E2,4E0,2.87E2,2.62E2,5.4E1,2.33E2,1.71E2,9.1E1,1.76E2,5.7E1,1.45E2,2.6E1,8.5E1,6E0,3E1,1.46E2,1.9E1,3.8E1,1.27E2,1.8E1,2.2E1,4E0,5E0,8E1,1.7E1,1.3E1,1.33E2,1.3E1,5E0,1.4E1,4E0,3.4E1,1.01E2,2.6E1,6E0,1.6E1,5E0,8E0,8.8E1,4.5E1,9E0,4E0,8E0,6E0,2.4E1,1E1,1.7E1,8.4E1,2.1E1,5E0,4E0,1.2E1],"tree_param":{"num_deleted":"0","num_feature":"156","num_nodes":"55","size_leaf_vector":"1"}},{"base_weights":[-5.341426E-1,-9.7686374E-1,9.92647E-2,-2.968952E-2,1E-2,-7.241379E-1,2E-1,-0E0,-2.4117647E-2,-0E0,3.5E-1,-4.9295774E-1,2.3809524E-1,1.3131313E-1,8.1395346E-1,-6E-1,-0E0,-3.448276E-2,3.114754E-1,-7.964602E-2,4.1573033E-1,8.518519E-1,-0E0,-6.785714E-1,-0E0,8.181818E-3,-7.5E-3,1.764706E-1,-3.75E-1,-0E0,4.318182E-1,-5.2380955E-1,-0E0,-1.6666667E-1,5.0617284E-1,2.7272727E-3,2.6756756E-2,-5.4545454E-3,-2.5263157E-2,1.1538462E-2,-0E0,-0E0,-1.5E-2,-7.7777775E-3,1.39999995E-2,2.090909E-2,6.6101695E-3,-0E0,-1.9411765E-2,4.6153846E-3,-1.3636364E-2,-7.5E-3,-0E0,-0E0,1.8923078E-2],"categories":[],"categories_nodes":[],"categories_segments":[],"categories_sizes":[],"default_left":[0,0,0,0,0,0,0,0,0,0,0,0,0,0,0,0,0,0,0,0,0,0,0,0,0,0,0,0,0,0,0,0,0,0,0,0,0,0,0,0,0,0,0,0,0,0,0,0,0,0,0,0,0,0,0],"id":6,"left_children":[1,3,5,-1,-1,7,9,-1,-1,11,13,15,17,19,21,23,25,27,29,31,33,35,-1,37,-1,-1,-1,39,41,43,45,47,49,51,53,-1,-1,-1,-1,-1,-1,-1,-1,-1,-1,-1,-1,-1,-1,-1,-1,-1,-1,-1,-1],"loss_changes":[3.7390826E2,1.7050842E1,4.795299E1,0E0,0E0,2.8661194E0,1.5300003E1,0E0,0E0,2.8511066E1,2.847195E1,4.7746487E0,3.968668E0,1.4140947E1,1.9526253E0,4.5E0,3.409091E0,4.8128805E0,5.0543966E0,6.821744E0,6.732834E0,7.0178986E-1,0E0,3.2703304E0,0E0,0E0,0E0,2.2262442E0,1.25E0,7.985185E0,4.42758E0,1.8487406E0,8.825174E0,5E-1,5.606838E0,0E0,0E0,0E0,0E0,0E0,0E0,0E0,0E0,0E0,0E0,0E0,0E0,0E0,0E0,0E0,0E0,0E0,0E0,0E0,0E0],"parents":[2147483647,0,0,1,1,2,2,5,5,6,6,9,9,10,10,11,11,12,12,13,13,14,14,15,15,16,16,17,17,18,18,19,19,20,20,21,21,23,23,27,27,28,28,29,29,30,30,31,31,32,32,33,33,34,34],"right_children":[2,4,6,-1,-1,8,10,-1,-1,12,14,16,18,20,22,24,26,28,30,32,34,36,-1,38,-1,-1,-1,40,42,44,46,48,50,52,54,-1,-1,-1,-1,-1,-1,-1,-1,-1,-1,-1,-1,-1,-1,-1,-1,-1,-1,-1,-1],"split_conditions":[1.4014329E-1,4.899E-1,4.7393337E-1,-8.9406965E-10,3.1093115E-3,9.1629076E-1,4.8887274E-1,-4.7483234E-4,-7.499884E-3,8.163888E1,4.7935453E-1,6.2E1,3E0,4.96312E-1,4.9E2,4.4E1,4E0,4.1742408E-1,5.7268476E0,4.7294545E-1,3.6595735E-1,1.2763861E1,5.1731407E-4,1.6519675E-1,1.0173306E-4,1.3813832E-3,-1.5997512E-3,1E0,1.44E-1,6E-1,7E0,6.120755E-3,6E-1,7.413769E0,8.2359746E-2,3.544702E-3,5.714222E-3,-1.5151821E-3,-1.1344148E-3,2.439782E-3,-8.564301E-3,3.6071686E-4,-2.6893571E-3,-3.0589878E-4,1.3544913E-3,3.3518367E-3,1.2624835E-3,1.7493063E-3,-3.5595524E-3,8.6025865E-4,-1.790403E-3,-1.4138111E-3,2.826333E-5,6.1006842E-5,2.8129327E-3],"split_indices":[98,99,154,0,0,31,154,0,0,2,153,20,57,103,65,41,50,39,127,152,39,32,0,40,0,0,0,53,16,64,5,40,64,1,40,0,0,0,0,0,0,0,0,0,0,0,0,0,0,0,0,0,0,0,0],"split_type":[0,0,0,0,0,0,0,0,0,0,0,0,0,0,0,0,0,0,0,0,0,0,0,0,0,0,0,0,0,0,0,0,0,0,0,0,0,0,0,0,0,0,0,0,0,0,0,0,0,0,0,0,0,0,0],"sum_hessian":[1.314E3,7.74E2,5.4E2,7.69E2,5E0,5.4E1,4.86E2,7E0,4.7E1,2.1E2,2.76E2,6.7E1,1.43E2,1.94E2,8.2E1,5.6E1,1.1E1,2.5E1,1.18E2,1.09E2,8.5E1,7.7E1,5E0,5.2E1,4E0,7E0,4E0,1.3E1,1.2E1,3.4E1,8.4E1,1.7E1,9.2E1,8E0,7.7E1,7E0,7E1,1.8E1,3.4E1,9E0,4E0,4E0,8E0,2.3E1,1.1E1,2.9E1,5.5E1,4E0,1.3E1,7.4E1,1.8E1,4E0,4E0,1.6E1,6.1E1],"tree_param":{"num_deleted":"0","num_feature":"156","num_nodes":"55","size_leaf_vector":"1"}},{"base_weights":[-5.336866E-1,-9.797468E-1,1.2523365E-1,-2.9769229E-2,-0E0,-4.024768E-2,3.7962964E-1,-1E-2,1E-2,-5.9375E-1,8.745247E-2,-0E0,4.6285716E-1,-7.241379E-1,6E-3,-6.585366E-1,2.300885E-1,1.5789473E-1,-1.3636364E-2,5.683453E-1,-0E0,-8.148148E-1,-0E0,-0E0,-2.2727272E-2,6.2711865E-1,7.602339E-2,-4.347826E-2,1.4210526E-2,6E-1,-0E0,-1.3333334E-1,1.2857143E-2,-0E0,-2.64E-2,-7.5E-3,-0E0,-0E0,6.981132E-1,-0E0,6E-1,-2.9411766E-1,6E-3,-0E0,6.6386557E-1,1.6666667E-1,-3.6363637E-1,2.3076923E-3,2.3181817E-2,1.6030534E-3,-1.173913E-2,-0E0,2.1E-2,-0E0,-1.6153846E-2,1.2857143E-2,-1.2E-2,2.0892857E-2,-0E0,-0E0,7.5E-3,-1.5882354E-2,-0E0],"categories":[],"categories_nodes":[],"categories_segments":[],"categories_sizes":[],"default_left":[0,0,0,0,0,0,0,0,0,0,0,0,0,0,0,0,0,0,0,0,0,0,0,0,0,0,0,0,0,0,0,0,0,0,0,0,0,0,0,0,0,0,0,0,0,0,0,0,0,0,0,0,0,0,0,0,0,0,0,0,0,0,0],"id":7,"left_children":[1,3,5,-1,7,9,11,-1,-1,13,15,17,19,21,-1,23,25,27,-1,29,31,33,-1,35,-1,37,39,41,-1,43,-1,45,-1,-1,-1,-1,-1,-1,47,49,51,53,-1,55,57,59,61,-1,-1,-1,-1,-1,-1,-1,-1,-1,-1,-1,-1,-1,-1,-1,-1],"loss_changes":[3.927508E2,9.7724E0,2.444077E1,0E0,4.666667E0,2.6614508E1,6.69471E0,0E0,0E0,9.572849E0,3.093837E1,5.669856E0,7.8298035E0,5.800762E0,0E0,1.5550652E0,1.4119306E1,4.796339E0,0E0,3.827343E0,5.3523808E0,3.1288872E0,0E0,1.5E0,0E0,2.91078E0,1.0107604E1,3.6296678E0,0E0,4.100834E0,0E0,4.29697E0,0E0,0E0,0E0,0E0,0E0,0E0,1.1256065E0,5.674743E0,1.1999989E0,3.2760181E0,0E0,7.485714E0,2.0063019E0,5E-1,2.5187168E0,0E0,0E0,0E0,0E0,0E0,0E0,0E0,0E0,0E0,0E0,0E0,0E0,0E0,0E0,0E0,0E0],"parents":[2147483647,0,0,1,1,2,2,4,4,5,5,6,6,9,9,10,10,11,11,12,12,13,13,15,15,16,16,17,17,19,19,20,20,21,21,23,23,25,25,26,26,27,27,29,29,31,31,38,38,39,39,40,40,41,41,43,43,44,44,45,45,46,46],"right_children":[2,4,6,-1,8,10,12,-1,-1,14,16,18,20,22,-1,24,26,28,-1,30,32,34,-1,36,-1,38,40,42,-1,44,-1,46,-1,-1,-1,-1,-1,-1,48,50,52,54,-1,56,58,60,62,-1,-1,-1,-1,-1,-1,-1,-1,-1,-1,-1,-1,-1,-1,-1,-1],"split_conditions":[4.9709547E-1,5E0,4.738E-1,-8.9406965E-10,4.3294254E-1,4.8815835E-1,3.2367736E-2,-4.0776203E-3,3.0160323E-3,4.713E-1,4.8345456E-1,4.25E0,2.72E1,7.89E2,8.582604E-4,3.564918E-2,2.50914E-3,3.911041E-1,-9.3512534E-4,2.0830324E0,4.7022137E-1,2.458614E0,7.414703E-4,1.1422623E1,-4.3549356E-3,6.7882934E0,3.020706E-1,4.3405557E-1,2.5516427E-3,5E0,-6.1905384E-4,5.625715E0,3.970698E-3,-4.3812318E-4,-4.309388E-3,-2.002688E-3,3.7840917E-4,-9.523174E-4,1.2355595E-1,2.5907671E0,-7.693297E-1,-5.1142573E-1,3.1233148E-3,4.09205E-2,7.3423904E1,9E0,6E-1,4.3092975E-3,4.4232397E-3,1.9239217E-4,-1.3437464E-3,1.2329345E-3,5.0945766E-3,7.22435E-3,-3.5144957E-3,3.3561038E-3,-4.995453E-4,2.8170785E-3,7.339016E-4,3.8578256E-4,6.349075E-3,-5.70496E-4,2.8381794E-4],"split_indices":[96,5,149,0,100,150,40,0,0,153,154,22,11,10,0,70,79,91,0,87,37,71,0,32,0,26,92,125,0,25,0,29,0,0,0,0,0,0,40,30,37,37,0,85,32,57,64,0,0,0,0,0,0,0,0,0,0,0,0,0,0,0,0],"split_type":[0,0,0,0,0,0,0,0,0,0,0,0,0,0,0,0,0,0,0,0,0,0,0,0,0,0,0,0,0,0,0,0,0,0,0,0,0,0,0,0,0,0,0,0,0,0,0,0,0,0,0,0,0,0,0,0,0,0,0,0,0,0,0],"sum_hessian":[1.317E3,7.86E2,5.31E2,7.76E2,1E1,3.19E2,2.12E2,5E0,5E0,6E1,2.59E2,4.1E1,1.71E2,5.4E1,6E0,3.7E1,2.22E2,3.4E1,7E0,1.35E2,3.6E1,5E1,4E0,8E0,2.9E1,5.5E1,1.67E2,1.9E1,1.5E1,1.31E2,4E0,2.6E1,1E1,4E0,4.6E1,4E0,4E0,6E0,4.9E1,1.46E2,2.1E1,1.3E1,6E0,1.6E1,1.15E2,8E0,1.8E1,9E0,4E1,1.27E2,1.9E1,5E0,1.6E1,4E0,9E0,1E1,6E0,1.08E2,7E0,4E0,4E0,1.3E1,5E0],"tree_param":{"num_deleted":"0","num_feature":"156","num_nodes":"63","size_leaf_vector":"1"}},{"base_weights":[-5.4272866E-1,8.0213904E-2,-2.9768338E-2,-2.6421404E-1,4.7368422E-1,-2.7096773E-2,-8.713693E-2,2.8735632E-1,7.708333E-1,-3.617021E-1,7.284768E-2,1.9727892E-1,6.1290324E-1,2.5324674E-2,3.043478E-1,-4.2222223E-1,7.5E-3,-3.043478E-1,1.5151516E-1,5.154639E-2,4.074074E-1,-0E0,2.2799999E-2,-3.3333332E-3,1.6666668E-2,-5E-1,-0E0,-0E0,-1.5882354E-2,-1.1111111E-1,2.6E-1,1.7333333E-1,-2.3076923E-1,-2.7272727E-3,5.319149E-1,-0E0,-1.6956521E-2,-6.9230767E-3,1E-2,-1E-2,1.2E-2,9.782609E-3,-5E-3,7.1830987E-3,-7.5E-3,-0E0,-1.0909091E-2,2E-2,-3.3333332E-3],"categories":[],"categories_nodes":[],"categories_segments":[],"categories_sizes":[],"default_left":[0,0,0,0,0,0,0,0,0,0,0,0,0,0,0,0,0,0,0,0,0,0,0,0,0,0,0,0,0,0,0,0,0,0,0,0,0,0,0,0,0,0,0,0,0,0,0,0,0],"id":8,"left_children":[1,3,-1,5,7,-1,9,11,13,15,17,19,21,-1,23,25,-1,27,29,31,33,-1,-1,-1,-1,35,37,-1,-1,39,41,43,45,-1,47,-1,-1,-1,-1,-1,-1,-1,-1,-1,-1,-1,-1,-1,-1],"loss_changes":[3.7783957E2,7.957823E1,0E0,3.4442207E1,1.4063293E1,0E0,1.2658974E1,5.089735E0,1.469574E0,5.488652E0,5.8914747E0,4.546307E0,3.3832254E0,0E0,4.985508E0,3.2666664E0,0E0,3.5345273E0,5.0525246E0,4.7904415E0,5.287484E0,0E0,0E0,0E0,0E0,3.304348E0,3.948718E0,0E0,0E0,6.977778E0,4.2869563E0,3.5815027E0,2.055944E0,0E0,6.463355E0,0E0,0E0,0E0,0E0,0E0,0E0,0E0,0E0,0E0,0E0,0E0,0E0,0E0,0E0],"parents":[2147483647,0,0,1,1,3,3,4,4,6,6,7,7,8,8,9,9,10,10,11,11,12,12,14,14,15,15,17,17,18,18,19,19,20,20,25,25,26,26,29,29,30,30,31,31,32,32,34,34],"right_children":[2,4,-1,6,8,-1,10,12,14,16,18,20,22,-1,24,26,-1,28,30,32,34,-1,-1,-1,-1,36,38,-1,-1,40,42,44,46,-1,48,-1,-1,-1,-1,-1,-1,-1,-1,-1,-1,-1,-1,-1,-1],"split_conditions":[3E0,4.7294545E-1,-8.9406965E-10,1.0986123E0,4.7935453E-1,-4.07713E-3,5.2145E-1,5.268827E-1,7.184342E-2,6.604437E-1,3.975222E-1,1E0,1.916E2,4.9148155E-3,4.670625E-1,6E0,2.0232757E-3,5E0,1.6341528E1,4.25E0,5.7189584E-1,-6.458088E-5,3.0608098E-3,-1.629205E-3,3.6923378E-3,3.9761677E-1,5.6410933E0,3.1547705E-3,-5.942585E-3,5.1E1,1.2941917E0,4.960606E-1,-2.22E-1,-1.1321157E-4,8E0,4.7126322E-4,-1.8561083E-3,-5.9295684E-4,2.3451178E-4,-1.2396164E-3,1.013401E-2,1.5421901E-3,-1.7678725E-3,1.2256667E-3,-2.210252E-4,2.2757393E-3,-5.8786955E-4,2.502846E-3,-2.7682132E-3],"split_indices":[47,153,0,155,153,0,150,33,63,130,95,50,65,0,94,50,0,57,32,22,110,0,0,0,0,117,29,0,0,48,84,101,17,0,50,0,0,0,0,0,0,0,0,0,0,0,0,0,0],"split_type":[0,0,0,0,0,0,0,0,0,0,0,0,0,0,0,0,0,0,0,0,0,0,0,0,0,0,0,0,0,0,0,0,0,0,0,0,0,0,0,0,0,0,0,0,0,0,0,0,0],"sum_hessian":[1.33E3,5.57E2,7.73E2,2.95E2,2.62E2,5.8E1,2.37E2,1.7E2,9.2E1,9E1,1.47E2,1.43E2,2.7E1,7.3E1,1.9E1,8.6E1,4E0,1.9E1,1.28E2,9.3E1,5E1,6E0,2.1E1,5E0,1.4E1,7.2E1,1.4E1,6E0,1.3E1,3.2E1,9.6E1,7.1E1,2.2E1,7E0,4.3E1,7E0,6.5E1,9E0,5E0,2.6E1,6E0,8.8E1,8E0,6.7E1,4E0,4E0,1.8E1,3.8E1,5E0],"tree_param":{"num_deleted":"0","num_feature":"156","num_nodes":"49","size_leaf_vector":"1"}},{"base_weights":[-5.278839E-1,-9.8191214E-1,1.24304265E-1,-2.976532E-2,-0E0,-4.9668875E-1,3.6734694E-1,-7.3195875E-1,-3.448276E-2,2.274678E-1,5.460123E-1,-7.6086956E-1,-0E0,2.5925925E-1,-3.1428573E-1,-1.5E-2,2.711111E-1,2.0634921E-1,7.1153843E-1,-8.1333333E-1,-3.3333334E-1,4.5454547E-1,-3.3333332E-3,-6E-1,1.4285715E-1,-1.5789473E-1,3.1428573E-1,5.135135E-1,-1.3333334E-1,1.1111111E-1,7.777778E-1,-2.7272727E-3,-2.5588235E-2,-1.5E-2,-0E0,-0E0,2E-2,-0E0,-2.0526316E-2,-0E0,1E-2,-0E0,-3.3333334E-1,5.9183675E-1,2.1212122E-1,2.0399999E-2,-0E0,-3.6E-1,1E-2,1.1538462E-2,-3.3333332E-3,2.4418604E-2,-0E0,-1.3636364E-2,-0E0,1.9333333E-2,-0E0,-1E-2,8.181818E-3,1E-2,-2.7272727E-3,-1.5E-2,-0E0],"categories":[],"categories_nodes":[],"categories_segments":[],"categories_sizes":[],"default_left":[0,0,0,0,0,0,0,0,0,0,0,0,0,0,0,0,0,0,0,0,0,0,0,0,0,0,0,0,0,0,0,0,0,0,0,0,0,0,0,0,0,0,0,0,0,0,0,0,0,0,0,0,0,0,0,0,0,0,0,0,0,0,0],"id":9,"left_children":[1,3,5,-1,-1,7,9,11,13,15,17,19,-1,21,23,-1,25,27,29,31,33,35,-1,37,39,41,43,45,47,49,51,-1,-1,-1,-1,-1,-1,-1,-1,-1,-1,-1,53,55,57,-1,59,61,-1,-1,-1,-1,-1,-1,-1,-1,-1,-1,-1,-1,-1,-1,-1],"loss_changes":[3.9212714E2,8.834839E0,8.478014E1,0E0,0E0,1.5865395E1,9.377468E0,1.4074402E0,7.3592415E0,9.656559E0,8.22879E0,2.2899246E-1,0E0,4.0673394E0,7.542859E0,0E0,5.483042E0,9.369541E0,2.7222252E0,4.702263E-1,2.3333335E0,4.303031E0,0E0,2.3157692E-1,1.4761906E0,1.8947371E0,5.803335E0,2.4691887E0,5.946667E0,3.350427E0,2.677002E0,0E0,0E0,0E0,0E0,0E0,0E0,0E0,0E0,0E0,0E0,0E0,1.0909088E0,1.7360573E0,7.272727E0,0E0,2.787879E0,2.3199997E0,0E0,0E0,0E0,0E0,0E0,0E0,0E0,0E0,0E0,0E0,0E0,0E0,0E0,0E0,0E0],"parents":[2147483647,0,0,1,1,2,2,5,5,6,6,7,7,8,8,9,9,10,10,11,11,13,13,14,14,16,16,17,17,18,18,19,19,20,20,21,21,23,23,24,24,25,25,26,26,27,27,28,28,29,29,30,30,42,42,43,43,44,44,46,46,47,47],"right_children":[2,4,6,-1,-1,8,10,12,14,16,18,20,-1,22,24,-1,26,28,30,32,34,36,-1,38,40,42,44,46,48,50,52,-1,-1,-1,-1,-1,-1,-1,-1,-1,-1,-1,54,56,58,-1,60,62,-1,-1,-1,-1,-1,-1,-1,-1,-1,-1,-1,-1,-1,-1,-1],"split_conditions":[4.9709547E-1,4.9701697E-1,4.7250834E-1,-8.9406965E-10,8.9224125E-4,4.8335E-1,4.8434547E-1,7.89E2,5.7462034E0,3.0896935E1,4.1483846E-1,2.5E1,-1.997905E-3,2.66E1,7.071787E-1,-2.2082701E-3,4.6838194E-1,7.071787E-1,6.120755E-3,2E0,8.969742E0,5.79447E-1,-1.2871008E-3,4.5135453E-1,5.21E2,1.0015E3,5.5117124E-1,9E0,1.0110397E0,3.2031E3,1E0,-3.959999E-3,-3.3454867E-3,-3.784967E-3,1.6095578E-4,-6.62461E-3,2.8391324E-3,-5.7113967E-3,-1.3853984E-3,-3.402854E-3,8.924162E-3,1.0744929E-5,5E0,9.22E0,3.4140864E-1,7.6114456E-3,2.50914E-3,4.9301562E-1,6.122412E-3,3.8563334E-3,-1.0194567E-3,5.911649E-3,3.7936112E-3,-4.1656315E-4,1.8058262E-3,2.2627695E-3,8.329882E-4,-7.00145E-4,8.7715965E-4,4.240519E-3,-4.2260448E-3,-2.0891163E-3,4.589047E-3],"split_indices":[96,39,152,0,0,154,152,10,119,76,145,0,0,11,38,0,38,38,40,57,1,126,0,152,10,4,38,57,38,4,68,0,0,0,0,0,0,0,0,0,0,0,7,21,39,0,36,116,0,0,0,0,0,0,0,0,0,0,0,0,0,0,0],"split_type":[0,0,0,0,0,0,0,0,0,0,0,0,0,0,0,0,0,0,0,0,0,0,0,0,0,0,0,0,0,0,0,0,0,0,0,0,0,0,0,0,0,0,0,0,0,0,0,0,0,0,0,0,0,0,0,0,0,0,0,0,0,0,0],"sum_hessian":[1.305E3,7.7E2,5.35E2,7.63E2,7E0,1.47E2,3.88E2,9.3E1,5.4E1,2.29E2,1.59E2,8.8E1,5E0,2.3E1,3.1E1,8E0,2.21E2,5.9E1,1E2,7.1E1,1.7E1,1.8E1,5E0,2.1E1,1E1,1.5E1,2.06E2,3.3E1,2.6E1,1.4E1,8.6E1,7E0,6.4E1,1.2E1,5E0,4E0,1.4E1,6E0,1.5E1,5E0,5E0,4E0,1.1E1,4.5E1,1.61E2,2.1E1,1.2E1,2.1E1,5E0,9E0,5E0,8.2E1,4E0,7E0,4E0,4.1E1,4E0,1.1E1,1.5E2,5E0,7E0,1.6E1,5E0],"tree_param":{"num_deleted":"0","num_feature":"156","num_nodes":"63","size_leaf_vector":"1"}},{"base_weights":[-5.353075E-1,9.7826086E-2,-2.9687906E-2,-1.9402985E-1,3.75E-1,-6.7241377E-1,1.5384616E-1,2.0512821E-1,5.441176E-1,-0E0,-7.2477067E-1,-6.666667E-2,4.5714286E-1,9.090909E-2,1.9285714E-2,2.987013E-1,7.777778E-1,-7.938144E-1,-0E0,1.6666667E-1,-3.478261E-1,-0E0,5.5172414E-1,1.8584071E-1,-3.043478E-1,4.516129E-1,-1.5789473E-1,-0E0,2.5789473E-2,-2.5813952E-2,-6.666667E-2,-1.2E-2,6E-3,3.1707317E-1,-8.181818E-3,6E-3,-5E-1,-6E-3,6E-3,6.4E-1,-0E0,-9.090909E-2,3.0952382E-1,-1.5882354E-2,-0E0,-0E0,5.686275E-1,-0E0,-1.3636364E-2,3.3333332E-3,-1.2E-2,-0E0,1.4516128E-2,-1.9655172E-2,-0E0,-0E0,2.2682926E-2,-1E-2,6.9230767E-3,-0E0,1.1818182E-2,-1E-2,6E-3,-0E0,2.0454545E-2,-0E0,7.5E-3],"categories":[],"categories_nodes":[],"categories_segments":[],"categories_sizes":[],"default_left":[0,0,0,0,0,0,0,0,0,0,0,0,0,0,0,0,0,0,0,0,0,0,0,0,0,0,0,0,0,0,0,0,0,0,0,0,0,0,0,0,0,0,0,0,0,0,0,0,0,0,0,0,0,0,0,0,0,0,0,0,0,0,0,0,0,0,0],"id":10,"left_children":[1,3,-1,5,7,9,11,13,15,-1,17,19,21,23,-1,25,27,29,31,33,35,37,39,41,43,45,47,-1,-1,-1,49,-1,-1,51,-1,-1,53,-1,-1,55,-1,57,59,-1,-1,61,63,65,-1,-1,-1,-1,-1,-1,-1,-1,-1,-1,-1,-1,-1,-1,-1,-1,-1,-1,-1],"loss_changes":[3.8318246E2,4.719176E1,0E0,4.8579952E1,7.825794E0,5.018032E0,1.2816116E1,8.212786E0,6.8459816E0,0E0,4.1430016E0,8.289855E0,3.4049282E0,6.539298E0,0E0,7.4919405E0,4.33918E0,3.15065E0,4.4E0,5.2993345E0,6.2434783E0,2.4E0,3.1779308E0,5.2760606E0,3.5345273E0,4.313093E0,2.9856458E0,0E0,0E0,0E0,3.4222221E0,0E0,0E0,3.8033047E0,0E0,0E0,3.068965E0,0E0,0E0,3.4234142E0,0E0,4.979021E0,2.532467E0,0E0,0E0,3.5333335E0,4.4171124E0,1.5E0,0E0,0E0,0E0,0E0,0E0,0E0,0E0,0E0,0E0,0E0,0E0,0E0,0E0,0E0,0E0,0E0,0E0,0E0,0E0],"parents":[2147483647,0,0,1,1,3,3,4,4,5,5,6,6,7,7,8,8,10,10,11,11,12,12,13,13,15,15,16,16,17,17,18,18,19,19,20,20,21,21,22,22,23,23,24,24,25,25,26,26,30,30,33,33,36,36,39,39,41,41,42,42,45,45,46,46,47,47],"right_children":[2,4,-1,6,8,10,12,14,16,-1,18,20,22,24,-1,26,28,30,32,34,36,38,40,42,44,46,48,-1,-1,-1,50,-1,-1,52,-1,-1,54,-1,-1,56,-1,58,60,-1,-1,62,64,66,-1,-1,-1,-1,-1,-1,-1,-1,-1,-1,-1,-1,-1,-1,-1,-1,-1,-1,-1],"split_conditions":[6.340191E-1,4.8896363E-1,-8.9406965E-10,8.163888E1,2E0,2.4087632E0,8.74767E0,4.7705454E-1,4.5038846E-1,6.0089526E-5,6.584791E0,4.4999865E-1,2.344E2,6.6E-1,3.7485096E-3,9.292644E-2,4.7705454E-1,2.3978953E0,2E0,3E0,5.7189584E-1,5.022447E-1,3.33E1,4E0,6.4270425E-1,4.7947392E-1,5.045998E0,-7.746841E-4,4.854892E-3,-2.147757E-3,4.1453835E-1,-3.1845237E-3,9.4106555E-4,2.3500185E-2,-1.3820984E-3,4.0473337E-3,5.6056076E-1,-4.0538012E-4,1.2820243E-4,5.7189584E-1,3.5509318E-5,4.8403403E-1,1.3E1,-5.5400543E-3,3.7520747E-3,3.398396E1,1.65E1,4.5E1,-3.3007683E-3,1.4674696E-3,-3.6845196E-3,-3.1589353E-3,2.993827E-3,-1.8294891E-3,-3.0882595E-4,7.930273E-4,2.9819154E-3,-1.3785583E-3,1.1561483E-3,-6.188732E-4,1.0877604E-3,-1.4385866E-3,8.05745E-3,-1.1445183E-3,4.7444217E-3,-2.718882E-3,4.646104E-3],"split_indices":[69,154,0,2,50,71,74,149,149,0,27,39,14,15,0,63,152,151,52,52,105,39,11,57,33,142,28,0,0,0,39,0,0,70,0,0,39,0,0,105,0,144,0,0,0,73,13,3,0,0,0,0,0,0,0,0,0,0,0,0,0,0,0,0,0,0,0],"split_type":[0,0,0,0,0,0,0,0,0,0,0,0,0,0,0,0,0,0,0,0,0,0,0,0,0,0,0,0,0,0,0,0,0,0,0,0,0,0,0,0,0,0,0,0,0,0,0,0,0,0,0,0,0,0,0,0,0,0,0,0,0,0,0,0,0,0,0],"sum_hessian":[1.313E3,5.48E2,7.65E2,2.64E2,2.84E2,1.12E2,1.52E2,1.52E2,1.32E2,7E0,1.05E2,8.6E1,6.6E1,1.28E2,2.4E1,7.3E1,5.9E1,9.3E1,1.2E1,4.4E1,4.2E1,1.2E1,5.4E1,1.09E2,1.9E1,5.8E1,1.5E1,6E0,5.3E1,8.2E1,1.1E1,6E0,6E0,3.7E1,7E0,6E0,3.6E1,6E0,6E0,4.6E1,8E0,2.9E1,8E1,1.3E1,6E0,1.1E1,4.7E1,8E0,7E0,5E0,6E0,1E1,2.7E1,2.5E1,1.1E1,9E0,3.7E1,2E1,9E0,1.8E1,6.2E1,5E0,6E0,7E0,4E1,4E0,4E0],"tree_param":{"num_deleted":"0","num_feature":"156","num_nodes":"67","size_leaf_vector":"1"}},{"base_weights":[-5.677321E-1,5.2434456E-2,-2.9693877E-2,-3.257143E-1,2.3966943E-1,-6.4102566E-1,2.580645E-1,-4.117647E-1,3.093093E-1,-0E0,-6.814159E-1,-0E0,2.1818181E-2,-5.3333336E-1,-0E0,7.3333335E-1,1.7557251E-1,-7.7011496E-1,-2.6666668E-1,-2.5E-1,1.25E-1,-0E0,-2.1E-2,7.746479E-1,-0E0,2.4200913E-1,-1.0638298E-1,-8.0487806E-1,-0E0,2.3076923E-1,-1.8571429E-2,-0E0,-1.2E-2,2.857143E-1,-7.5E-3,-1E-2,3.3333332E-3,2.4626864E-2,-0E0,9.352518E-2,4.5238096E-1,-1.3636364E-2,-0E0,-2.5714286E-2,-7.5E-3,1E-2,-0E0,-0E0,1.5E-2,-9.130434E-3,5.5E-3,1.6666668E-2,-0E0,3.75E-3,-1E-2],"categories":[],"categories_nodes":[],"categories_segments":[],"categories_sizes":[],"default_left":[0,0,0,0,0,0,0,0,0,0,0,0,0,0,0,0,0,0,0,0,0,0,0,0,0,0,0,0,0,0,0,0,0,0,0,0,0,0,0,0,0,0,0,0,0,0,0,0,0,0,0,0,0,0,0],"id":11,"left_children":[1,3,-1,5,7,9,11,13,15,-1,17,19,-1,21,-1,23,25,27,29,31,33,35,-1,37,-1,39,41,43,-1,45,-1,-1,-1,47,-1,-1,-1,-1,-1,49,51,-1,53,-1,-1,-1,-1,-1,-1,-1,-1,-1,-1,-1,-1],"loss_changes":[3.4791962E2,4.0000587E1,0E0,3.593374E1,1.8697948E1,4.553665E0,9.384166E0,3.2549014E0,1.8949192E1,0E0,2.6834717E0,3E0,0E0,1.9333344E0,0E0,2.437561E0,5.973341E0,1.6633072E0,8.939195E0,1.2E0,3.9285717E0,2.888889E0,0E0,2.7286072E0,0E0,6.7954082E0,3.1334622E0,5.156746E-1,0E0,7.179489E-1,0E0,0E0,0E0,3.5714285E0,0E0,0E0,0E0,0E0,0E0,6.5245643E0,5.4444447E0,0E0,3.6666665E0,0E0,0E0,0E0,0E0,0E0,0E0,0E0,0E0,0E0,0E0,0E0,0E0],"parents":[2147483647,0,0,1,1,3,3,4,4,5,5,6,6,7,7,8,8,10,10,11,11,13,13,15,15,16,16,17,17,18,18,19,19,20,20,21,21,23,23,25,25,26,26,27,27,29,29,33,33,39,39,40,40,42,42],"right_children":[2,4,-1,6,8,10,12,14,16,-1,18,20,-1,22,-1,24,26,28,30,32,34,36,-1,38,-1,40,42,44,-1,46,-1,-1,-1,48,-1,-1,-1,-1,-1,50,52,-1,54,-1,-1,-1,-1,-1,-1,-1,-1,-1,-1,-1,-1],"split_conditions":[1E0,4.738E-1,-8.9406965E-10,4.7218183E-1,4.738E-1,2.458614E0,1.0986123E0,6E1,1.3862944E0,3.3399582E-4,7.981485E-1,4.7591817E-1,5.2272095E-3,4.2565E-1,2.287832E-3,5.0845726E1,5.28E2,1.236E1,3E0,2E0,8.184779E-2,1.0986123E0,-8.366418E-3,9.855739E-1,5.439721E-3,1E0,-5.849839E-1,8.975375E-1,-5.9262244E-4,2E0,-3.7848356E-3,5.124561E-4,-1.2063311E-3,3.4339871E0,-3.1798405E-3,-2.7445059E-3,5.39362E-3,4.395908E-3,1.4414593E-4,1.7775486E1,2.0268316E0,-1.2203568E-3,7.656313E-1,-2.4973645E-3,-4.3016777E-4,2.7000806E-3,-4.885378E-3,-1.1696813E-3,2.9912647E-3,-7.961717E-4,7.663178E-4,2.533075E-3,-2.779126E-5,6.472501E-4,-2.270408E-3],"split_indices":[89,148,0,152,152,82,115,20,155,0,91,152,0,129,0,77,10,22,45,52,63,155,0,37,0,51,34,37,0,12,0,0,0,111,0,0,0,0,0,32,31,0,38,0,0,0,0,0,0,0,0,0,0,0,0],"split_type":[0,0,0,0,0,0,0,0,0,0,0,0,0,0,0,0,0,0,0,0,0,0,0,0,0,0,0,0,0,0,0,0,0,0,0,0,0,0,0,0,0,0,0,0,0,0,0,0,0,0,0,0,0,0,0],"sum_hessian":[1.31E3,5.3E2,7.8E2,1.71E2,3.59E2,1.13E2,5.8E1,3E1,3.29E2,4E0,1.09E2,4E1,1.8E1,2.6E1,4E0,7.1E1,2.58E2,8.3E1,2.6E1,1.2E1,2.8E1,1E1,1.6E1,6.7E1,4E0,2.15E2,4.3E1,7.8E1,5E0,9E0,1.7E1,6E0,6E0,2.4E1,4E0,5E0,5E0,6.3E1,4E0,1.35E2,8E1,7E0,3.6E1,6.6E1,1.2E1,5E0,4E0,8E0,1.6E1,1.9E1,1.16E2,6.8E1,1.2E1,2.8E1,8E0],"tree_param":{"num_deleted":"0","num_feature":"156","num_nodes":"55","size_leaf_vector":"1"}},{"base_weights":[-5.5233E-1,6.398538E-2,-2.9765014E-2,-5.125E-1,3.043478E-1,-6.779661E-1,-0E0,1.4410481E-1,5.060241E-1,-2.5862068E-2,-4.375E-1,-2.3529412E-1,3.75E-1,-0E0,3.263158E-1,3.1034482E-1,2.5555557E-2,3.3333332E-3,-5.254237E-1,-1.5E-2,-0E0,1.5E-2,-0E0,5.2380955E-1,-7.438017E-2,-2.3076923E-1,4.1860464E-1,4.3820226E-1,-3.2258064E-2,-6.585366E-1,-9.090909E-2,-1.2E-2,1E-1,-0E0,1.9411765E-2,-1.8181819E-1,1.8000001E-2,-0E0,-1E-2,5E-1,-6E-3,5.0617284E-1,-0E0,1.764706E-1,-3.3333334E-1,-2.189189E-2,-0E0,1E-2,-1.2352941E-2,-0E0,1.2E-2,1.3636364E-2,-7.864078E-3,1.7368421E-2,-7.5E-3,-0E0,1.8000001E-2,-7.5E-3,-0E0,-0E0,1.1538462E-2,-1.5E-2,-0E0],"categories":[],"categories_nodes":[],"categories_segments":[],"categories_sizes":[],"default_left":[0,0,0,0,0,0,0,0,0,0,0,0,0,0,0,0,0,0,0,0,0,0,0,0,0,0,0,0,0,0,0,0,0,0,0,0,0,0,0,0,0,0,0,0,0,0,0,0,0,0,0,0,0,0,0,0,0,0,0,0,0,0,0],"id":12,"left_children":[1,3,-1,5,7,9,11,13,15,-1,17,19,21,23,25,27,-1,-1,29,-1,31,-1,-1,33,35,37,39,41,43,45,47,-1,49,-1,-1,51,-1,-1,-1,53,-1,55,57,59,61,-1,-1,-1,-1,-1,-1,-1,-1,-1,-1,-1,-1,-1,-1,-1,-1,-1,-1],"loss_changes":[3.589672E2,7.901435E1,0E0,1.2874157E1,1.2427216E1,3.6025696E0,6.5735297E0,6.089175E0,1.0476269E1,0E0,4.945385E0,2.1764703E0,1.25E0,8.824084E0,6.9385185E0,6.5901947E0,0E0,0E0,2.5702572E0,0E0,3.8000002E0,0E0,0E0,1.8487406E0,1.1196695E1,7.179489E-1,6.4558144E0,3.9350796E0,4.407337E0,2.2069874E0,6.3172903E0,0E0,2.6E0,0E0,0E0,7.853486E0,0E0,0E0,0E0,7.2894745E0,0E0,4.8222256E0,1.5E0,2.2262442E0,1.6666667E0,0E0,0E0,0E0,0E0,0E0,0E0,0E0,0E0,0E0,0E0,0E0,0E0,0E0,0E0,0E0,0E0,0E0,0E0],"parents":[2147483647,0,0,1,1,3,3,4,4,5,5,6,6,7,7,8,8,10,10,11,11,12,12,13,13,14,14,15,15,18,18,20,20,23,23,24,24,25,25,26,26,27,27,28,28,29,29,30,30,32,32,35,35,39,39,41,41,42,42,43,43,44,44],"right_children":[2,4,-1,6,8,10,12,14,16,-1,18,20,22,24,26,28,-1,-1,30,-1,32,-1,-1,34,36,38,40,42,44,46,48,-1,50,-1,-1,52,-1,-1,-1,54,-1,56,58,60,62,-1,-1,-1,-1,-1,-1,-1,-1,-1,-1,-1,-1,-1,-1,-1,-1,-1,-1],"split_conditions":[3E0,4.7363636E-1,-8.9406965E-10,4.8668182E-1,4.8222727E-1,1.0986123E0,5.333583E-1,1E0,4.901091E-1,-3.748978E-3,4.654634E-2,4.953956E-1,2.727E2,1.9367112E-1,4.7788212E-1,5.7E0,5.544691E-3,2.8782248E-4,5.7689E-1,-1.557662E-3,2.0078881E-1,4.7256784E-3,-2.5387286E-4,1.9705009E-2,6.320458E-1,4.8486203E-1,4.901614E1,2.99E-1,6.557561E-1,6.84E2,2.6490963E-1,-7.283158E-3,7.0538574E-1,3.8111722E-3,3.0228244E-3,1E0,2.812152E-3,1.0531962E-4,-1.775819E-4,6.678135E-1,-8.4514613E-4,2E0,4.04E-1,1.9459101E0,2E0,-2.6391551E-3,-1.0970942E-3,3.341049E-4,-1.1393067E-3,-1.906971E-3,4.135861E-3,2.8810233E-3,-2.6964067E-4,1.7562957E-3,-1.7410697E-3,-1.7674139E-3,2.6625234E-3,-1.4799312E-3,1.2051782E-3,-2.464163E-4,2.5773079E-3,-1.8106775E-3,-2.8808287E-3],"split_indices":[47,152,0,154,152,155,40,49,153,0,72,120,14,107,38,21,0,0,91,0,98,0,0,40,118,84,77,16,38,10,40,0,38,0,0,9,0,0,0,39,0,5,16,151,18,0,0,0,0,0,0,0,0,0,0,0,0,0,0,0,0,0,0],"split_type":[0,0,0,0,0,0,0,0,0,0,0,0,0,0,0,0,0,0,0,0,0,0,0,0,0,0,0,0,0,0,0,0,0,0,0,0,0,0,0,0,0,0,0,0,0,0,0,0,0,0,0,0,0,0,0,0,0,0,0,0,0,0,0],"sum_hessian":[1.305E3,5.43E2,7.62E2,1.56E2,3.87E2,1.14E2,4.2E1,2.25E2,1.62E2,5.4E1,6E1,3E1,1.2E1,1.34E2,9.1E1,1.12E2,5E1,5E0,5.5E1,8E0,2.2E1,8E0,4E0,1.7E1,1.17E2,9E0,8.2E1,8.5E1,2.7E1,3.7E1,1.8E1,6E0,1.6E1,4E0,1.3E1,1.06E2,1.1E1,4E0,5E0,7.6E1,6E0,7.7E1,8E0,1.3E1,1.4E1,3.3E1,4E0,5E0,1.3E1,1E1,6E0,7E0,9.9E1,7.2E1,4E0,1.1E1,6.6E1,4E0,4E0,4E0,9E0,8E0,6E0],"tree_param":{"num_deleted":"0","num_feature":"156","num_nodes":"63","size_leaf_vector":"1"}},{"base_weights":[-5.6593823E-1,5.5555556E-2,-2.9696586E-2,-3.1460676E-1,2.4043716E-1,-3.8181818E-1,2.9411766E-1,5E-1,1.7218544E-1,-4.532374E-1,-0E0,-0E0,1.5E-2,5.873016E-1,-3.3333332E-3,-1.2195122E-1,2.2264151E-1,-3.3333334E-1,-7.1428573E-1,-1.2E-2,1.6666667E-1,-0E0,2.2340424E-2,1E-2,-3.3333334E-1,1.4410481E-1,6E-1,-6.785714E-1,-0E0,-0E0,-2.4193548E-2,-6E-3,4.4444445E-1,-7.5E-3,2.5E-1,-1.6956521E-2,-0E0,1.889401E-1,-3.75E-1,7.222222E-1,-0E0,-2.1764705E-2,-0E0,-7.894737E-3,5.121951E-3,-0E0,1.7142858E-2,1.5E-2,-0E0,-0E0,7.5E-3,1.5328467E-3,1.1428571E-2,-0E0,-1.5E-2,-0E0,2.4375E-2],"categories":[],"categories_nodes":[],"categories_segments":[],"categories_sizes":[],"default_left":[0,0,0,0,0,0,0,0,0,0,0,0,0,0,0,0,0,0,0,0,0,0,0,0,0,0,0,0,0,0,0,0,0,0,0,0,0,0,0,0,0,0,0,0,0,0,0,0,0,0,0,0,0,0,0,0,0],"id":13,"left_children":[1,3,-1,5,7,9,11,13,15,17,19,-1,-1,21,-1,23,25,27,29,-1,31,33,-1,-1,35,37,39,41,43,-1,-1,-1,45,-1,47,-1,49,51,53,55,-1,-1,-1,-1,-1,-1,-1,-1,-1,-1,-1,-1,-1,-1,-1,-1,-1],"loss_changes":[3.53646E2,3.9107735E1,0E0,9.352472E0,6.5221653E0,4.7850857E0,2.352941E0,5.634918E0,5.481591E0,3.6807137E0,4.5333333E0,0E0,0E0,4.96319E0,0E0,6.5691056E0,8.105463E0,1.5166669E1,2.6728077E0,0E0,5.200001E0,3.5E0,0E0,0E0,4.608696E0,6.9204264E0,4.866667E0,1.2450962E0,4.2464695E0,0E0,0E0,0E0,1.523809E0,0E0,3E0,0E0,1.5E0,5.774026E0,1.25E0,2.708334E0,0E0,0E0,0E0,0E0,0E0,0E0,0E0,0E0,0E0,0E0,0E0,0E0,0E0,0E0,0E0,0E0,0E0],"parents":[2147483647,0,0,1,1,3,3,4,4,5,5,6,6,7,7,8,8,9,9,10,10,13,13,15,15,16,16,17,17,18,18,20,20,21,21,24,24,25,25,26,26,27,27,28,28,32,32,34,34,36,36,37,37,38,38,39,39],"right_children":[2,4,-1,6,8,10,12,14,16,18,20,-1,-1,22,-1,24,26,28,30,-1,32,34,-1,-1,36,38,40,42,44,-1,-1,-1,46,-1,48,-1,50,52,54,56,-1,-1,-1,-1,-1,-1,-1,-1,-1,-1,-1,-1,-1,-1,-1,-1,-1],"split_conditions":[6.3530904E-1,4.738E-1,-8.9406965E-10,7E0,4.1E1,1.113314E0,4.0443486E-1,6.736967E0,1.27E1,2.727E2,3.9130208E-1,-1.2649118E-4,3.1301836E-3,4.6036428E-1,-2.0499139E-4,1.63E-1,2.7762E3,4.8552728E-1,4.7E0,-8.481567E-3,4.7919166E-1,1.3544361E-1,2.7959275E-3,1.8312817E-3,4.880573E-1,6.879356E0,4.868898E0,6.34E-1,5.2E1,-4.327355E-4,-3.119208E-3,-4.783034E-3,2.14E1,-5.456169E-3,4E0,-4.0472386E-4,4.9384546E-1,5.000727E-1,4E2,-8.166446E-1,-4.3972917E-3,-2.5599806E-3,-2.7930735E-5,-1.3122886E-3,8.3271053E-4,6.0058635E-4,3.0604631E-3,3.2619408E-3,-1.2781987E-3,-3.2810005E-3,4.733286E-3,2.1393031E-4,3.1334306E-3,9.694706E-4,-2.2164455E-3,1.19004246E-4,4.1552666E-3],"split_indices":[69,148,0,50,20,42,121,27,11,14,95,0,0,149,0,16,4,154,11,0,154,40,0,0,39,123,66,15,3,0,0,0,11,0,44,0,154,154,4,37,0,0,0,0,0,0,0,0,0,0,0,0,0,0,0,0,0],"split_type":[0,0,0,0,0,0,0,0,0,0,0,0,0,0,0,0,0,0,0,0,0,0,0,0,0,0,0,0,0,0,0,0,0,0,0,0,0,0,0,0,0,0,0,0,0,0,0,0,0,0,0,0,0,0,0,0,0],"sum_hessian":[1.323E3,5.36E2,7.87E2,1.74E2,3.62E2,1.61E2,1.3E1,6.4E1,2.98E2,1.35E2,2.6E1,5E0,8E0,5.9E1,5E0,3.7E1,2.61E2,1.04E2,3.1E1,6E0,2E1,1.6E1,4.3E1,8E0,2.9E1,2.25E2,3.6E1,5.2E1,5.2E1,4E0,2.7E1,6E0,1.4E1,4E0,1.2E1,1.9E1,1E1,2.13E2,1.2E1,3.2E1,4E0,4.7E1,5E0,1.5E1,3.7E1,4E0,1E1,8E0,4E0,6E0,4E0,1.33E2,8E1,4E0,8E0,4E0,2.8E1],"tree_param":{"num_deleted":"0","num_feature":"156","num_nodes":"57","size_leaf_vector":"1"}},{"base_weights":[-5.579432E-1,-9.7946084E-1,6.439394E-2,-2.9689921E-2,3.3333332E-3,-7.692308E-2,7.777778E-1,-3.7333333E-1,6.7567565E-2,-0E0,8.1395346E-1,-4.225352E-1,1.6666667E-1,-2.1875E-1,1.5254237E-1,2.7272727E-3,8.4810126E-1,-7.0731705E-1,-2.761905E-1,7.5E-3,-0E0,1.3636364E-2,-3.6842105E-1,-2.3809524E-1,1.9634703E-1,-0E0,2.6712328E-2,-2.4857143E-2,-0E0,2.3255814E-2,-4.848485E-1,-5.121951E-1,-0E0,-1.6153846E-2,-0E0,2.857143E-1,-1.7073171E-1,-1E-2,7.5E-3,-0E0,-1.9199999E-2,-0E0,-1.8000001E-2,-6E-3,1E-2,-6E-3,1.0481928E-2,-1.1818182E-2,1E-2],"categories":[],"categories_nodes":[],"categories_segments":[],"categories_sizes":[],"default_left":[0,0,0,0,0,0,0,0,0,0,0,0,0,0,0,0,0,0,0,0,0,0,0,0,0,0,0,0,0,0,0,0,0,0,0,0,0,0,0,0,0,0,0,0,0,0,0,0,0],"id":14,"left_children":[1,3,5,-1,-1,7,9,11,13,-1,15,17,19,21,23,-1,25,27,29,-1,-1,-1,31,33,35,-1,-1,-1,-1,37,39,41,43,-1,-1,45,47,-1,-1,-1,-1,-1,-1,-1,-1,-1,-1,-1,-1],"loss_changes":[3.4583694E2,1.1350464E1,5.8031666E1,0E0,0E0,2.1098547E1,2.677002E0,5.642254E0,8.417572E0,0E0,4.3717194E-1,5.413494E0,5E-1,9.363936E0,5.2694736E0,0E0,1.2231712E0,4.0013943E0,8.456539E0,0E0,0E0,0E0,3.5943499E0,3.78022E0,8.649737E0,0E0,0E0,0E0,0E0,5.883721E0,5.585457E0,2.1951227E0,3.7333336E0,0E0,0E0,7.2626524E0,7.485587E0,0E0,0E0,0E0,0E0,0E0,0E0,0E0,0E0,0E0,0E0,0E0,0E0],"parents":[2147483647,0,0,1,1,2,2,5,5,6,6,7,7,8,8,10,10,11,11,12,12,13,13,14,14,16,16,17,17,18,18,22,22,23,23,24,24,29,29,30,30,31,31,32,32,35,35,36,36],"right_children":[2,4,6,-1,-1,8,10,12,14,-1,16,18,20,22,24,-1,26,28,30,-1,-1,-1,32,34,36,-1,-1,-1,-1,38,40,42,44,-1,-1,46,48,-1,-1,-1,-1,-1,-1,-1,-1,-1,-1,-1,-1],"split_conditions":[4.9709547E-1,4.899E-1,4.7935453E-1,-8.9406965E-10,2.2235976E-3,4.7351667E-1,3.211131E1,9.86E2,4.8604E-1,2.629052E-4,7.990126E1,1.0986123E0,5E0,1.1E1,4.6480605E-1,7.949833E-3,3.449077E-1,4.6884167E-1,4.1742408E-1,4.24667E-4,-2.2790462E-4,1.31306145E-2,4.3405557E-1,5E0,3.28E1,3.44232E-3,4.2893705E-3,-4.7287373E-3,-2.3920834E-6,3.4011974E0,1.69E-1,-6.4E-2,6.6011137E-1,-1.0221442E-3,3.2231135E-3,1.02E1,2.8496712E-2,-1.0115512E-3,1.347864E-3,-5.102813E-4,-2.3456435E-3,-6.4751206E-5,-2.0973596E-3,-2.7550757E-4,1.8183285E-3,-3.4118904E-4,1.252706E-3,-3.4270942E-4,2.0217453E-3],"split_indices":[96,99,153,0,0,148,77,10,94,0,2,155,6,3,124,0,100,153,39,0,0,0,125,6,11,0,0,0,0,106,16,17,38,0,0,11,85,0,0,0,0,0,0,0,0,0,0,0,0],"split_type":[0,0,0,0,0,0,0,0,0,0,0,0,0,0,0,0,0,0,0,0,0,0,0,0,0,0,0,0,0,0,0,0,0,0,0,0,0,0,0,0,0,0,0,0,0,0,0,0,0],"sum_hessian":[1.299E3,7.75E2,5.24E2,7.7E2,5E0,4.38E2,8.6E1,1.46E2,2.92E2,4E0,8.2E1,1.38E2,8E0,6E1,2.32E2,7E0,7.5E1,3.7E1,1.01E2,4E0,4E0,7E0,5.3E1,1.7E1,2.15E2,6E0,6.9E1,3.1E1,6E0,3.9E1,6.2E1,3.7E1,1.6E1,9E0,8E0,1.78E2,3.7E1,1.1E1,2.8E1,1.6E1,4.6E1,6E0,3.1E1,1.1E1,5E0,1.6E1,1.62E2,2.9E1,8E0],"tree_param":{"num_deleted":"0","num_feature":"156","num_nodes":"49","size_leaf_vector":"1"}},{"base_weights":[-5.619335E-1,-9.7964376E-1,4.4280443E-2,-0E0,-2.9691912E-2,-6.4912283E-1,1.2883435E-1,-0E0,-7.254902E-1,-2.4937657E-3,7.173913E-1,-0E0,-2.347826E-2,-4.871795E-1,4.3715846E-2,2.3414632E-2,-0E0,-0E0,-6.363636E-1,-1.9587629E-1,1.3553114E-1,1.2E-2,-7.5E-3,-0E0,-2.1724137E-2,1.6153846E-2,-3.181818E-1,6.882591E-2,6E-1,-0E0,-1.4262294E-2,-0E0,8.181818E-3,2.2799999E-2,-0E0],"categories":[],"categories_nodes":[],"categories_segments":[],"categories_sizes":[],"default_left":[0,0,0,0,0,0,0,0,0,0,0,0,0,0,0,0,0,0,0,0,0,0,0,0,0,0,0,0,0,0,0,0,0,0,0],"id":15,"left_children":[1,3,5,-1,-1,7,9,-1,11,13,15,-1,-1,17,19,-1,21,-1,23,25,27,-1,-1,-1,-1,-1,29,31,33,-1,-1,-1,-1,-1,-1],"loss_changes":[3.3915787E2,8.796753E0,3.4006084E1,0E0,0E0,3.1310635E0,4.1597954E1,0E0,1.5592499E0,1.2066977E1,2.8557816E0,0E0,0E0,4.7039614E0,9.1876135E0,0E0,4.7E0,0E0,2.1943607E0,1.1599741E1,9.088568E0,0E0,0E0,0E0,0E0,0E0,5.506708E0,4.554656E0,4.2799997E0,0E0,0E0,0E0,0E0,0E0,0E0],"parents":[2147483647,0,0,1,1,2,2,5,5,6,6,8,8,9,9,10,10,13,13,14,14,16,16,18,18,19,19,20,20,26,26,27,27,28,28],"right_children":[2,4,6,-1,-1,8,10,-1,12,14,16,-1,-1,18,20,-1,22,-1,24,26,28,-1,-1,-1,-1,-1,30,32,34,-1,-1,-1,-1,-1,-1],"split_conditions":[1.4014329E-1,4.59512E0,4.7346362E-1,1.3606095E-3,-8.9406965E-10,7.371641E-1,4.7835E-1,-1.7263949E-3,3.162643E1,4.738E-1,3.8342655E1,-2.3298025E-4,-6.7381607E-3,1.216457E0,4.7351667E-1,3.837264E-3,3.6969656E3,6.91751E-3,3.674514E-2,2.7699714E0,3.6116806E1,4.9311393E-3,-1.143934E-3,2.408976E-3,-2.0344385E-3,4.7585024E-3,3.5937986E-1,8.945333E0,5E0,6.328225E-6,-9.030953E-4,-1.1596978E-5,1.6984105E-3,2.9691695E-3,-7.9154223E-4],"split_indices":[98,127,154,0,0,31,153,0,76,112,76,0,0,83,148,0,62,0,72,80,76,0,0,0,0,0,145,74,44,0,0,0,0,0,0],"split_type":[0,0,0,0,0,0,0,0,0,0,0,0,0,0,0,0,0,0,0,0,0,0,0,0,0,0,0,0,0,0,0,0,0,0,0],"sum_hessian":[1.32E3,7.82E2,5.38E2,7E0,7.75E2,5.3E1,4.85E2,6E0,4.7E1,3.97E2,8.8E1,5E0,4.2E1,3.5E1,3.62E2,7.8E1,1E1,6E0,2.9E1,9.3E1,2.69E2,6E0,4E0,4E0,2.5E1,9E0,8.4E1,2.43E2,2.6E1,2.7E1,5.7E1,1.81E2,6.2E1,2.1E1,5E0],"tree_param":{"num_deleted":"0","num_feature":"156","num_nodes":"35","size_leaf_vector":"1"}},{"base_weights":[-5.700076E-1,-9.638989E-1,1.125E-1,-2.9559363E-2,1.1111111E-1,-4.054054E-1,2.707775E-1,-2.7272727E-3,1.3636364E-2,-6.052632E-1,-0E0,1.0552764E-1,4.3820226E-1,-6.571429E-1,-0E0,2.631579E-1,-1.6666667E-1,-3.939394E-1,2.1176471E-1,2.8333333E-1,6.7741936E-1,-1.25E-1,-7.241379E-1,-0E0,1.2857143E-2,3.3333332E-3,-3.6842105E-1,3.3333332E-3,-5.714286E-1,2.7522936E-2,4.7692308E-1,6.7741936E-1,1.1827957E-1,7.692308E-1,-0E0,-1.2E-2,-0E0,-2.5609756E-2,-2.3809524E-1,-0E0,-1.6153846E-2,-0E0,-2.2499999E-2,-3E-1,1.1827957E-1,-7.5E-3,5.7377046E-1,-0E0,2.3333333E-2,3.114754E-1,-1.6666667E-1,-0E0,2.4782607E-2,-0E0,7.5E-3,-1.39999995E-2,-0E0,-0E0,-1.3636364E-2,-1.3636364E-2,6.2790695E-3,1.9473685E-2,-0E0,-7.5E-3,1.2105263E-2,-1.0714286E-2,5E-3],"categories":[],"categories_nodes":[],"categories_segments":[],"categories_sizes":[],"default_left":[0,0,0,0,0,0,0,0,0,0,0,0,0,0,0,0,0,0,0,0,0,0,0,0,0,0,0,0,0,0,0,0,0,0,0,0,0,0,0,0,0,0,0,0,0,0,0,0,0,0,0,0,0,0,0,0,0,0,0,0,0,0,0,0,0,0,0],"id":16,"left_children":[1,3,5,-1,7,9,11,-1,-1,13,15,17,19,21,-1,23,25,27,29,31,33,35,37,-1,-1,-1,39,-1,41,43,45,47,49,51,53,-1,-1,-1,55,-1,-1,-1,-1,57,59,-1,61,-1,-1,63,65,-1,-1,-1,-1,-1,-1,-1,-1,-1,-1,-1,-1,-1,-1,-1,-1],"loss_changes":[3.5552792E2,2.1845581E1,4.17715E1,0E0,3.8787878E0,1.0398291E1,1.0139143E1,0E0,0E0,2.5939865E0,3.7017543E0,1.2529367E1,5.995369E0,1.2032051E0,0E0,1.9172931E0,3.2748535E0,5.2871585E0,8.414381E0,7.9430103E0,2.684864E0,2.45E0,2.1251945E0,0E0,0E0,0E0,1.8704457E0,0E0,5.0714273E0,4.5815334E0,7.184742E0,2.5089607E0,7.056407E0,8.4949493E-1,1.5E0,0E0,0E0,0E0,2.9904761E0,0E0,0E0,0E0,0E0,1.090909E0,6.9213667E0,0E0,4.2369843E0,0E0,0E0,5.230803E0,4.3333335E0,0E0,0E0,0E0,0E0,0E0,0E0,0E0,0E0,0E0,0E0,0E0,0E0,0E0,0E0,0E0,0E0],"parents":[2147483647,0,0,1,1,2,2,4,4,5,5,6,6,9,9,10,10,11,11,12,12,13,13,15,15,16,16,17,17,18,18,19,19,20,20,21,21,22,22,26,26,28,28,29,29,30,30,31,31,32,32,33,33,34,34,38,38,43,43,44,44,46,46,49,49,50,50],"right_children":[2,4,6,-1,8,10,12,-1,-1,14,16,18,20,22,-1,24,26,28,30,32,34,36,38,-1,-1,-1,40,-1,42,44,46,48,50,52,54,-1,-1,-1,56,-1,-1,-1,-1,58,60,-1,62,-1,-1,64,66,-1,-1,-1,-1,-1,-1,-1,-1,-1,-1,-1,-1,-1,-1,-1,-1],"split_conditions":[5.1938945E-1,4.7631428E-1,4.7072726E-1,-8.9406965E-10,1.3441E3,4.8335E-1,4.8071766E-1,-1.923201E-3,6.274765E-3,8.42E2,2.0736106E-1,6.003542E-1,4.643E-1,1.5E0,-7.5157284E-4,-3.653327E-1,4.84E1,6.7E0,8.853808E0,-3.513515E-2,8.559955E-1,8.3E-1,4E0,-1.0803714E-3,2.6527918E-3,2.4053424E-3,4.921E-1,2.9229818E-4,1.43E0,4.6708572E-1,4.4244045E-1,4.0690714E-1,7.313944E-1,7.990126E1,8.285569E0,-2.3335025E-3,1.1913344E-4,-3.948225E-3,8.848222E0,-3.2348584E-3,-2.8942295E-3,4.8546106E-4,-2.6453062E-4,1E0,4.3E1,-1.407735E-4,4E0,1.8470559E-3,3.7292324E-3,6.05E1,9.9290377E-1,6.976632E-3,3.3756772E-3,-3.385055E-4,1.21323345E-2,-2.496524E-3,6.1823486E-4,-3.389445E-4,-2.241403E-3,-5.0773233E-4,5.3332956E-4,2.236921E-3,-2.986121E-4,-2.519808E-3,1.975118E-3,-2.1869533E-3,3.312291E-3],"split_indices":[96,152,152,0,4,154,152,0,0,10,40,96,149,22,0,37,13,11,74,35,37,22,9,0,0,0,94,0,22,124,38,149,38,2,1,0,0,0,74,0,0,0,0,51,13,0,51,0,0,14,38,0,0,0,0,0,0,0,0,0,0,0,0,0,0,0,0],"split_type":[0,0,0,0,0,0,0,0,0,0,0,0,0,0,0,0,0,0,0,0,0,0,0,0,0,0,0,0,0,0,0,0,0,0,0,0,0,0,0,0,0,0,0,0,0,0,0,0,0,0,0,0,0,0,0,0,0,0,0,0,0,0,0,0,0,0,0],"sum_hessian":[1.303E3,8.27E2,4.76E2,8.13E2,1.4E1,1.07E2,3.69E2,7E0,7E0,7.2E1,3.5E1,1.95E2,1.74E2,6.6E1,6E0,1.5E1,2E1,2.9E1,1.66E2,1.16E2,5.8E1,1.2E1,5.4E1,5E0,1E1,5E0,1.5E1,5E0,2.4E1,1.05E2,6.1E1,2.7E1,8.9E1,4.8E1,1E1,6E0,6E0,3.7E1,1.7E1,6E0,9E0,4E0,2E1,1.6E1,8.9E1,4E0,5.7E1,4E0,2.3E1,5.7E1,3.2E1,6E0,4.2E1,6E0,4E0,1.1E1,6E0,9E0,7E0,7E0,8.2E1,5.3E1,4E0,4E0,5.3E1,2.4E1,8E0],"tree_param":{"num_deleted":"0","num_feature":"156","num_nodes":"67","size_leaf_vector":"1"}},{"base_weights":[-5.7251906E-1,5.323194E-2,-2.969543E-2,-3.783784E-1,2.2513089E-1,-5E-1,4E-1,4.918033E-2,2.5555557E-2,-7.5510204E-1,-3.1034482E-1,1.8000001E-2,-0E0,-4.2857143E-1,9.0277776E-2,-2.4666667E-2,-0E0,-4.025974E-1,1.4285715E-1,-1.8000001E-2,-0E0,-3.6363637E-1,1.3333334E-1,-5.151515E-1,6.666667E-2,-0E0,1.2E-2,-0E0,-1.7142858E-2,-3.0769232E-1,1.8548387E-1,-0E0,-1.8620688E-2,1E-2,-0E0,-7.5E-3,7.5E-3,-1.8000001E-2,6E-3,3.0731705E-3,1.468085E-2],"categories":[],"categories_nodes":[],"categories_segments":[],"categories_sizes":[],"default_left":[0,0,0,0,0,0,0,0,0,0,0,0,0,0,0,0,0,0,0,0,0,0,0,0,0,0,0,0,0,0,0,0,0,0,0,0,0,0,0,0,0],"id":17,"left_children":[1,3,-1,5,7,9,11,13,-1,15,17,-1,-1,19,21,-1,-1,23,25,-1,-1,27,29,31,33,-1,-1,35,-1,37,39,-1,-1,-1,-1,-1,-1,-1,-1,-1,-1],"loss_changes":[3.4606464E2,4.126106E1,0E0,1.7097298E1,4.285783E1,5.579876E0,3.000001E0,7.345336E0,0E0,2.7519207E0,5.327361E0,0E0,0E0,2.228572E0,6.988637E0,0E0,0E0,5.818183E0,2.3428571E0,0E0,0E0,2.4935064E0,7.6331677E0,5.251829E0,2E0,0E0,0E0,3E0,0E0,7.1076927E0,6.499547E0,0E0,0E0,0E0,0E0,0E0,0E0,0E0,0E0,0E0,0E0],"parents":[2147483647,0,0,1,1,3,3,4,4,5,5,6,6,7,7,9,9,10,10,13,13,14,14,17,17,18,18,21,21,22,22,23,23,24,24,27,27,29,29,30,30],"right_children":[2,4,-1,6,8,10,12,14,-1,16,18,-1,-1,20,22,-1,-1,24,26,-1,-1,28,30,32,34,-1,-1,36,-1,38,40,-1,-1,-1,-1,-1,-1,-1,-1,-1,-1],"split_conditions":[6.340191E-1,4.7156668E-1,-8.9406965E-10,4.761E-1,4.7841817E-1,4.162431E-1,5.203612E-2,4.557143E1,4.506694E-3,1.5942314E0,5.9E1,3.0658185E-3,-3.0501006E-4,6E0,4.738E-1,-3.4256636E-3,-3.015916E-4,2.8589E3,1.16333336E2,-6.798506E-4,8.819774E-4,8.778788E0,4.6838194E-1,9.1629076E-1,2E0,-5.9052766E-4,1.4220558E-3,1.2E1,-6.006381E-3,5.501192E-1,8.5058457E-1,2.7222678E-4,-2.1816413E-3,1.1828048E-2,-3.1608415E-3,-4.343696E-3,6.685442E-3,-4.4125287E-4,5.632639E-3,1.7382592E-4,2.169814E-3],"split_indices":[69,148,0,153,153,95,63,65,0,84,20,0,0,45,112,0,0,4,65,0,0,74,38,31,52,0,0,0,0,101,91,0,0,0,0,0,0,0,0,0,0],"split_type":[0,0,0,0,0,0,0,0,0,0,0,0,0,0,0,0,0,0,0,0,0,0,0,0,0,0,0,0,0,0,0,0,0,0,0,0,0,0,0,0,0],"sum_hessian":[1.306E3,5.22E2,7.84E2,1.44E2,3.78E2,1.28E2,1.6E1,3.01E2,7.7E1,4.5E1,8.3E1,1.1E1,5E0,1.7E1,2.84E2,4.1E1,4E0,7.3E1,1E1,1.1E1,6E0,1.8E1,2.66E2,6.2E1,1.1E1,4E0,6E0,8E0,1E1,2.2E1,2.44E2,8E0,5.4E1,5E0,6E0,4E0,4E0,1.6E1,6E0,2.01E2,4.3E1],"tree_param":{"num_deleted":"0","num_feature":"156","num_nodes":"41","size_leaf_vector":"1"}},{"base_weights":[-5.495087E-1,-9.5838434E-1,1.05882354E-1,-9.752475E-1,2.3076923E-1,-1.3824885E-2,7.75E-1,-0E0,-9.825654E-1,-0E0,1E-2,-4.2608696E-1,1.2693499E-1,-0E0,2.5068492E-2,-3.6842105E-1,-2.969543E-2,-5.8536583E-1,-0E0,7.534247E-2,4.857143E-1,-1.39999995E-2,-0E0,-2.590909E-2,-1.904762E-1,-2.7272728E-1,2.631579E-1,2.255639E-2,4.6666667E-1,-0E0,1.9285714E-2,-3.3333334E-1,6E-3,-1.3333333E-2,-0E0,-0E0,1.2857143E-2,2.6E-1,-1.05882354E-1,5.3846157E-1,-0E0,2.7272727E-3,-1.551724E-2,-4.7368417E-3,1.0941177E-2,-1.9090908E-2,-3.9473682E-4,-0E0,1.9090908E-2],"categories":[],"categories_nodes":[],"categories_segments":[],"categories_sizes":[],"default_left":[0,0,0,0,0,0,0,0,0,0,0,0,0,0,0,0,0,0,0,0,0,0,0,0,0,0,0,0,0,0,0,0,0,0,0,0,0,0,0,0,0,0,0,0,0,0,0,0,0],"id":18,"left_children":[1,3,5,7,9,11,13,-1,15,-1,-1,17,19,-1,-1,21,-1,23,25,27,29,-1,-1,-1,31,33,35,37,39,-1,-1,41,-1,-1,-1,-1,-1,43,45,47,-1,-1,-1,-1,-1,-1,-1,-1,-1],"loss_changes":[3.5869888E2,1.976294E1,4.5147068E1,6.7781982E0,7.179489E-1,2.8156433E1,3.1650696E0,0E0,9.188843E-1,0E0,0E0,7.8564167E0,6.4468303E0,0E0,0E0,1.0807018E0,0E0,8.119417E0,5.095694E0,6.6666594E0,3.9428558E0,0E0,0E0,0E0,4.2476196E0,2.606061E0,1.9172931E0,9.903848E0,1.2923079E0,0E0,0E0,4.9487977E0,0E0,0E0,0E0,0E0,0E0,6.0699687E0,9.204081E0,1.7622375E0,0E0,0E0,0E0,0E0,0E0,0E0,0E0,0E0,0E0],"parents":[2147483647,0,0,1,1,2,2,3,3,4,4,5,5,6,6,8,8,11,11,12,12,15,15,17,17,18,18,19,19,20,20,24,24,25,25,26,26,27,27,28,28,31,31,37,37,38,38,39,39],"right_children":[2,4,6,8,10,12,14,-1,16,-1,-1,18,20,-1,-1,22,-1,24,26,28,30,-1,-1,-1,32,34,36,38,40,-1,-1,42,-1,-1,-1,-1,-1,44,46,48,-1,-1,-1,-1,-1,-1,-1,-1,-1],"split_conditions":[5.1938945E-1,4.7797942E-1,4.810909E-1,4.738E-1,2E0,4.704091E-1,2.3053367E0,9.833157E-5,-3.72246E-1,8.242822E-4,2.0385664E-3,4.8335E-1,3.7906986E1,4.4195526E-3,3.8592534E-3,-1.99E-1,-8.9406965E-10,1.0986123E0,6.557561E-1,4.450016E0,5.904421E-1,-2.715032E-3,1.1867881E-4,-3.4749089E-3,5.951143E-1,1E0,8.542276E0,2E0,5.5E1,-1.618141E-4,2.9731796E-3,6.031833E-1,3.8767306E-4,-2.3494884E-3,2.6618005E-3,-1.1310882E-2,2.4716342E-3,2.069E2,5.2E1,1.672E2,7.9106836E-4,1.2449741E-4,-2.5029588E-3,-4.2416454E-5,1.029928E-3,-2.1156115E-3,-4.025236E-5,9.536138E-4,3.350153E-3],"split_indices":[96,153,153,108,52,152,78,0,35,0,0,154,76,0,0,17,0,155,38,66,96,0,0,0,39,58,74,18,20,0,0,122,0,0,0,0,0,14,3,14,0,0,0,0,0,0,0,0,0],"split_type":[0,0,0,0,0,0,0,0,0,0,0,0,0,0,0,0,0,0,0,0,0,0,0,0,0,0,0,0,0,0,0,0,0,0,0,0,0,0,0,0,0,0,0,0,0,0,0,0,0],"sum_hessian":[1.319E3,8.13E2,5.06E2,8.04E2,9E0,4.3E2,7.6E1,5E0,7.99E2,4E0,5E0,1.11E2,3.19E2,7E0,6.9E1,1.5E1,7.84E2,7.8E1,3.3E1,2.88E2,3.1E1,1.1E1,4E0,4E1,3.8E1,1.8E1,1.5E1,2.62E2,2.6E1,7E0,2.4E1,3.2E1,6E0,1.4E1,4E0,5E0,1E1,9.6E1,1.66E2,2.2E1,4E0,7E0,2.5E1,1.5E1,8.1E1,1.8E1,1.48E2,4E0,1.8E1],"tree_param":{"num_deleted":"0","num_feature":"156","num_nodes":"49","size_leaf_vector":"1"}},{"base_weights":[-5.7218444E-1,2.5547445E-2,-2.9768934E-2,-6.785714E-1,1.0887097E-1,-0E0,-7.307692E-1,-3.448276E-2,7.446808E-1,-0E0,-2.375E-2,-3.548387E-1,1.724138E-2,7.777778E-1,-0E0,-1.8571429E-2,-1.5555556E-1,-2.7868852E-1,8.5910656E-2,8.117647E-1,-0E0,-3E-1,1E-2,-2E-2,-0E0,-1.5E-2,1.1660777E-1,2.6619717E-2,2.2222222E-1,-1.5E-2,-0E0,6.774193E-3,-1.7142858E-2,-8.709677E-3,5.1562497E-3,1.5E-2,-0E0],"categories":[],"categories_nodes":[],"categories_segments":[],"categories_sizes":[],"default_left":[0,0,0,0,0,0,0,0,0,0,0,0,0,0,0,0,0,0,0,0,0,0,0,0,0,0,0,0,0,0,0,0,0,0,0,0,0],"id":19,"left_children":[1,3,-1,5,7,-1,9,11,13,-1,-1,15,17,19,-1,-1,21,23,25,27,-1,29,-1,-1,31,-1,33,-1,35,-1,-1,-1,-1,-1,-1,-1,-1],"loss_changes":[3.3604294E2,3.4354664E1,0E0,2.1923046E0,4.941256E1,0E0,2.5576935E0,8.77753E0,2.449173E0,0E0,0E0,3.0091162E0,8.171454E0,1.70327E0,0E0,0E0,5.422222E0,7.4808726E0,6.823078E0,1.9696579E0,0E0,3.1999998E0,0E0,0E0,9.341014E0,0E0,7.709705E0,0E0,3.222222E0,0E0,0E0,0E0,0E0,0E0,0E0,0E0,0E0],"parents":[2147483647,0,0,1,1,3,3,4,4,6,6,7,7,8,8,11,11,12,12,13,13,16,16,17,17,18,18,19,19,21,21,24,24,26,26,28,28],"right_children":[2,4,-1,6,8,-1,10,12,14,-1,-1,16,18,20,-1,-1,22,24,26,28,-1,30,-1,-1,32,-1,34,-1,36,-1,-1,-1,-1,-1,-1,-1,-1],"split_conditions":[3E0,4.7346362E-1,-8.9406965E-10,1.43E2,4.810909E-1,-1.5992975E-3,2.4087632E0,3.32E2,2.411475E2,-5.3654583E-3,-5.69115E-3,4.738E-1,5.6116843E-1,7.3423904E1,1.4207974E-3,-5.4113386E-4,3.2901037E-1,3.5978436E-1,3.51E1,4.5E1,1.2706411E-3,4.4622293E-1,2.8646896E-3,-1.5887854E-3,5.21E2,-4.2671844E-4,4.738E-1,4.286966E-3,4.88E1,-1.9621102E-3,8.4812474E-4,9.5382034E-5,-8.855617E-4,-3.58209E-4,4.221028E-4,4.4242814E-3,-4.106909E-4],"split_indices":[47,154,0,10,153,0,71,10,93,0,0,99,96,32,0,0,70,91,14,48,0,100,0,0,10,0,103,0,13,0,0,0,0,0,0,0,0],"split_type":[0,0,0,0,0,0,0,0,0,0,0,0,0,0,0,0,0,0,0,0,0,0,0,0,0,0,0,0,0,0,0,0,0,0,0,0,0],"sum_hessian":[1.319E3,5.44E2,7.75E2,5.2E1,4.92E2,4E0,4.8E1,4.02E2,9E1,4E0,4.4E1,5.8E1,3.44E2,8.6E1,4E0,1.7E1,4.1E1,5.7E1,2.87E2,8.1E1,5E0,3.6E1,5E0,2E1,3.7E1,8E0,2.79E2,6.7E1,1.4E1,2E1,1.6E1,2.7E1,1E1,2.7E1,2.52E2,8E0,6E0],"tree_param":{"num_deleted":"0","num_feature":"156","num_nodes":"37","size_leaf_vector":"1"}},{"base_weights":[-5.5621743E-1,-9.802225E-1,8.178439E-2,-2.9774716E-2,-0E0,-3.9259258E-1,2.4324325E-1,-7.5E-3,6E-3,-2.590909E-2,-1.368421E-1,1.1445783E-1,7.468355E-1,-3.015873E-1,1.1111111E-1,1.5286624E-1,-3.6363637E-1,7.866667E-1,-0E0,-3.898305E-1,7.5E-3,3.1034482E-1,-8.181818E-3,2E-1,-2.1212122E-1,-0E0,-1.6666668E-2,-0E0,2.4929577E-2,-0E0,-4.9019608E-1,1.7368421E-2,-0E0,1.3304721E-1,4.2857143E-1,-4.5454547E-1,6.666667E-2,7.5E-3,-0E0,-0E0,-1.6956521E-2,-7.5E-3,-0E0,8.8757393E-4,1.0588235E-2,1.5599999E-2,-0E0,-0E0,-1.6666668E-2,8.181818E-3,-0E0],"categories":[],"categories_nodes":[],"categories_segments":[],"categories_sizes":[],"default_left":[0,0,0,0,0,0,0,0,0,0,0,0,0,0,0,0,0,0,0,0,0,0,0,0,0,0,0,0,0,0,0,0,0,0,0,0,0,0,0,0,0,0,0,0,0,0,0,0,0,0,0],"id":20,"left_children":[1,3,5,-1,7,9,11,-1,-1,-1,13,15,17,19,21,23,25,27,-1,29,-1,31,-1,33,35,-1,-1,-1,-1,37,39,-1,41,43,45,47,49,-1,-1,-1,-1,-1,-1,-1,-1,-1,-1,-1,-1,-1,-1],"loss_changes":[3.6744376E2,9.777649E0,4.350618E1,0E0,2.7E0,1.6221268E1,2.680381E1,0E0,0E0,0E0,5.4990807E0,7.505452E0,2.5093613E0,5.0889163E0,5.054685E0,6.5842876E0,3.4141417E0,2.7921143E0,0E0,3.6902628E0,0E0,4.649728E0,0E0,4.4566545E0,4.363636E0,0E0,0E0,0E0,0E0,1.5E0,2.7408333E0,0E0,1.5E0,5.491973E0,3.5999985E0,1.4141421E0,1.5757576E0,0E0,0E0,0E0,0E0,0E0,0E0,0E0,0E0,0E0,0E0,0E0,0E0,0E0,0E0],"parents":[2147483647,0,0,1,1,2,2,4,4,5,5,6,6,10,10,11,11,12,12,13,13,14,14,15,15,16,16,17,17,19,19,21,21,23,23,24,24,29,29,30,30,32,32,33,33,34,34,35,35,36,36],"right_children":[2,4,6,-1,8,10,12,-1,-1,-1,14,16,18,20,22,24,26,28,-1,30,-1,32,-1,34,36,-1,-1,-1,-1,38,40,-1,42,44,46,48,50,-1,-1,-1,-1,-1,-1,-1,-1,-1,-1,-1,-1,-1,-1],"split_conditions":[4.9709547E-1,5E0,4.6984544E-1,-8.9406965E-10,4.3294254E-1,1.0986123E0,4.808E-1,-2.07999E-3,1.3256326E-3,-3.2613045E-3,8.0419235E-2,1.4086466E0,6.162839E-1,7E0,6.4409466E0,6.658011E0,1.96E0,4.9112692E-1,1.7600065E-3,3.5250276E-2,1.1880026E-3,2E0,-2.0399173E-3,5.686876E0,1.06E3,3.5905319E-3,-8.5110735E-4,1.3050431E-3,3.6910449E-3,2E1,3.6940727E-1,9.252101E-5,8.0655655E1,5.957375E-1,1E0,1.79494E1,6.217614E-1,6.9758766E-3,-4.0891973E-4,1.5878498E-3,-2.9800194E-3,-2.8101723E-3,1.3955668E-4,1.4870077E-4,8.5121643E-4,2.7184929E-3,-1.1395919E-3,1.2210966E-3,-1.2359284E-3,6.433117E-4,-7.887624E-3],"split_indices":[96,5,152,0,100,155,153,0,0,0,85,84,114,50,27,27,21,105,0,63,0,12,0,29,10,0,0,0,0,0,39,0,2,118,59,32,39,0,0,0,0,0,0,0,0,0,0,0,0,0,0],"split_type":[0,0,0,0,0,0,0,0,0,0,0,0,0,0,0,0,0,0,0,0,0,0,0,0,0,0,0,0,0,0,0,0,0,0,0,0,0,0,0,0,0,0,0,0,0,0,0,0,0,0,0],"sum_hessian":[1.339E3,8.05E2,5.34E2,7.95E2,1E1,1.31E2,4.03E2,4E0,6E0,4E1,9.1E1,3.28E2,7.5E1,5.9E1,3.2E1,3.1E2,1.8E1,7.1E1,4E0,5.5E1,4E0,2.5E1,7E0,2.81E2,2.9E1,4E0,1.4E1,4E0,6.7E1,8E0,4.7E1,1.5E1,1E1,2.29E2,5.2E1,1.8E1,1.1E1,4E0,4E0,5E0,4.2E1,4E0,6E0,1.65E2,6.4E1,4.6E1,6E0,4E0,1.4E1,7E0,4E0],"tree_param":{"num_deleted":"0","num_feature":"156","num_nodes":"51","size_leaf_vector":"1"}},{"base_weights":[-5.550528E-1,-9.7709924E-1,5.514706E-2,-2.976804E-2,-0E0,-7.1929824E-1,1.4867617E-1,-3.3333332E-3,1E-2,-0E0,-7.735849E-1,-2.1276595E-2,3.0769232E-1,-2.5E-1,-2.5609756E-2,-3.6231884E-1,1.05882354E-1,1.9417475E-1,6.551724E-1,-0E0,-1.3636364E-2,-5E-1,2.3076923E-1,-2.6666668E-1,1.9444445E-1,4.117647E-1,-0E0,7.037037E-1,-0E0,-0E0,-5.849057E-1,-0E0,1E-2,-0E0,-4.4444445E-1,2.5373134E-1,-2.857143E-1,-0E0,5.443038E-1,5E-1,-1.3043478E-1,-0E0,2.3617022E-2,-2.1428572E-2,-5.4545454E-3,6E-3,-6E-3,-0E0,-1.6153846E-2,1.0934579E-2,-2.9032256E-3,-0E0,-1.2E-2,-1.1538462E-2,6.6666664E-3,2.0526316E-2,2.3076923E-3,-0E0,1.8749999E-2,8.4E-3,-8.873239E-3],"categories":[],"categories_nodes":[],"categories_segments":[],"categories_sizes":[],"default_left":[0,0,0,0,0,0,0,0,0,0,0,0,0,0,0,0,0,0,0,0,0,0,0,0,0,0,0,0,0,0,0,0,0,0,0,0,0,0,0,0,0,0,0,0,0,0,0,0,0,0,0,0,0,0,0,0,0,0,0,0,0],"id":21,"left_children":[1,3,5,-1,7,9,11,-1,-1,-1,13,15,17,19,-1,21,23,25,27,-1,-1,29,31,33,35,37,39,41,-1,-1,43,-1,-1,45,47,49,51,53,55,57,59,-1,-1,-1,-1,-1,-1,-1,-1,-1,-1,-1,-1,-1,-1,-1,-1,-1,-1,-1,-1],"loss_changes":[3.454565E2,1.3694946E1,4.194149E1,0E0,2.888889E0,2.4429016E0,1.4589578E1,0E0,0E0,0E0,4.813614E-1,1.2645169E1,1.0214775E1,2.090909E0,0E0,8.108138E0,7.09281E0,1.0397487E1,2.038313E0,0E0,0E0,3.4716988E0,7.179489E-1,2.1333342E0,5.705283E0,6.6411037E0,9.086957E0,2.7210426E0,0E0,0E0,1.697134E0,0E0,0E0,2.4E0,5.8974314E-1,6.7085247E0,9.142854E-1,5.239316E0,4.30031E0,1.75E0,8.387409E0,0E0,0E0,0E0,0E0,0E0,0E0,0E0,0E0,0E0,0E0,0E0,0E0,0E0,0E0,0E0,0E0,0E0,0E0,0E0,0E0],"parents":[2147483647,0,0,1,1,2,2,4,4,5,5,6,6,10,10,11,11,12,12,13,13,15,15,16,16,17,17,18,18,21,21,22,22,23,23,24,24,25,25,26,26,27,27,30,30,33,33,34,34,35,35,36,36,37,37,38,38,39,39,40,40],"right_children":[2,4,6,-1,8,10,12,-1,-1,-1,14,16,18,20,-1,22,24,26,28,-1,-1,30,32,34,36,38,40,42,-1,-1,44,-1,-1,46,48,50,52,54,56,58,60,-1,-1,-1,-1,-1,-1,-1,-1,-1,-1,-1,-1,-1,-1,-1,-1,-1,-1,-1,-1],"split_conditions":[1.4014329E-1,5E0,4.7346362E-1,-8.9406965E-10,4.6380702E-1,2.4087632E0,4.9413636E-1,-3.2016311E-3,1.8049139E-3,-5.173395E-3,3.6940727E-1,5.011538E-1,4.7510386E-1,6E0,-6.99718E-3,4.0668225E0,1.11E-1,2E0,2E0,1.5599011E-4,-6.03024E-3,1.468E2,8.041698E1,-3.653327E-1,3E0,4.738E-1,-3.513515E-2,2E-1,1.281985E-3,6.6393615E-5,2E0,-3.2577216E-5,1.4688134E-4,4.2248943E-1,-1.9E-2,2.34E1,1.71E-1,2E0,4.5234445E-1,3.993183E-1,5.117875E-1,7.772505E-5,5.657428E-3,-6.303173E-4,-2.3104459E-4,3.3867205E-3,-3.1358286E-4,-1.9846559E-5,-6.0451985E-4,1.234746E-3,-4.1631906E-4,-1.2546926E-4,-8.930477E-4,-2.0340844E-3,4.2809863E-3,3.6696696E-3,2.0091175E-3,-1.0856389E-3,2.4332588E-3,5.8785797E-4,-3.265813E-4],"split_indices":[98,5,154,0,39,71,154,0,0,0,39,94,149,44,0,71,16,18,49,0,0,14,2,37,52,94,35,64,0,0,56,0,0,39,17,11,16,52,145,39,154,0,0,0,0,0,0,0,0,0,0,0,0,0,0,0,0,0,0,0,0],"split_type":[0,0,0,0,0,0,0,0,0,0,0,0,0,0,0,0,0,0,0,0,0,0,0,0,0,0,0,0,0,0,0,0,0,0,0,0,0,0,0,0,0,0,0,0,0,0,0,0,0,0,0,0,0,0,0,0,0,0,0,0,0],"sum_hessian":[1.322E3,7.82E2,5.4E2,7.72E2,1E1,5.3E1,4.87E2,5E0,5E0,4E0,4.9E1,2.31E2,2.56E2,1.2E1,3.7E1,6.5E1,1.66E2,2.02E2,5.4E1,5E0,7E0,5.6E1,9E0,2.6E1,1.4E2,9.8E1,1.04E2,5E1,4E0,7E0,4.9E1,4E0,5E0,1.2E1,1.4E1,1.3E2,1E1,2.3E1,7.5E1,1.6E1,8.8E1,7E0,4.3E1,3.1E1,1.8E1,6E0,6E0,5E0,9E0,1.03E2,2.7E1,4E0,6E0,9E0,1.4E1,5.3E1,2.2E1,4E0,1.2E1,2.1E1,6.7E1],"tree_param":{"num_deleted":"0","num_feature":"156","num_nodes":"61","size_leaf_vector":"1"}},{"base_weights":[-5.531752E-1,4.693141E-2,-2.9762218E-2,-4.5578232E-1,2.3114355E-1,-6E-1,-1.8032786E-1,1.3071896E-1,4.8623854E-1,-7.586207E-1,-2.2222222E-1,-0E0,-5.2380955E-1,6.2271062E-2,5.675676E-1,2.6760563E-1,7.619048E-1,-0E0,-2.5199998E-2,-1.8749999E-2,-0E0,-1.0526316E-1,1.2E-2,-1.9411765E-2,-0E0,-3.3333334E-1,1.1740891E-1,-0E0,2.2E-2,-1.2E-1,4.8E-1,-0E0,2.5135133E-2,-7.5E-3,-0E0,1E-2,-1.25E-1,-3.3333334E-1,1.1111111E-1,-1.6666668E-2,-0E0,-1.4084507E-2,3.027523E-1,-3.3333334E-1,2.7272727E-3,5.555556E-1,-0E0,-1E-2,-0E0,-1.7368421E-2,3.3333332E-3,1.2E-2,-0E0,7.5E-3,-5E-3,1E-2,-4.7663553E-3,-2.7272727E-3,1.4249999E-2,-0E0,-1.7142858E-2,2.3793103E-2,-0E0],"categories":[],"categories_nodes":[],"categories_segments":[],"categories_sizes":[],"default_left":[0,0,0,0,0,0,0,0,0,0,0,0,0,0,0,0,0,0,0,0,0,0,0,0,0,0,0,0,0,0,0,0,0,0,0,0,0,0,0,0,0,0,0,0,0,0,0,0,0,0,0,0,0,0,0,0,0,0,0,0,0,0,0],"id":22,"left_children":[1,3,-1,5,7,9,11,13,15,17,19,21,23,25,27,29,31,33,-1,-1,35,37,-1,-1,-1,39,41,-1,-1,43,45,-1,-1,-1,-1,-1,47,49,51,-1,53,55,57,59,-1,61,-1,-1,-1,-1,-1,-1,-1,-1,-1,-1,-1,-1,-1,-1,-1,-1,-1],"loss_changes":[3.4826538E2,5.3835815E1,0E0,5.144375E0,1.0584017E1,4.280464E0,5.1522245E0,9.745247E0,5.8679028E0,2.2262E0,6.083333E0,4.042105E0,1.8487406E0,7.233468E0,4.8774796E0,8.125071E0,1.895752E0,1.5E0,0E0,0E0,3.4166665E0,3.8245614E0,0E0,0E0,0E0,3.1111116E0,7.411847E0,0E0,0E0,2.9478788E0,2.671111E0,0E0,0E0,0E0,0E0,0E0,1.5833335E0,5.239766E0,2.5333333E0,0E0,2.5E0,8.918608E0,9.384531E0,3.5238097E0,0E0,5.302683E0,0E0,0E0,0E0,0E0,0E0,0E0,0E0,0E0,0E0,0E0,0E0,0E0,0E0,0E0,0E0,0E0,0E0],"parents":[2147483647,0,0,1,1,3,3,4,4,5,5,6,6,7,7,8,8,9,9,10,10,11,11,12,12,13,13,14,14,15,15,16,16,17,17,20,20,21,21,25,25,26,26,29,29,30,30,36,36,37,37,38,38,40,40,41,41,42,42,43,43,45,45],"right_children":[2,4,-1,6,8,10,12,14,16,18,20,22,24,26,28,30,32,34,-1,-1,36,38,-1,-1,-1,40,42,-1,-1,44,46,-1,-1,-1,-1,-1,48,50,52,-1,54,56,58,60,-1,62,-1,-1,-1,-1,-1,-1,-1,-1,-1,-1,-1,-1,-1,-1,-1,-1,-1],"split_conditions":[3E0,4.7226363E-1,-8.9406965E-10,4.89025E-1,6.290534E-1,5E0,5.5E-2,4.8052692E-1,5.06325E-1,3.1931929E1,1.0986123E0,5E1,8.975375E-1,-6.67419E-1,3.6249778E0,5E0,2E-1,4.272482E0,-4.7300663E-3,-3.087438E-3,2E0,5.7689E-1,4.8414542E-4,-6.911748E-4,1.1813879E-3,2E0,1E0,-2.3227035E-4,3.2073238E-3,4.96312E-1,6.2690964E0,1.8534011E-3,4.7071963E-3,-1.194592E-3,3.8371637E-4,8.533895E-5,4.9E1,4.8210973E-1,3E0,-2.463819E-4,4.89025E-1,1.9459101E0,4.738E-1,9.7832614E-1,2.717557E-3,4.82561E-1,-2.5649875E-4,-2.622959E-3,1.7570257E-5,-3.7429233E-3,8.012334E-3,1.7531825E-3,-1.3033425E-3,5.3980914E-3,-3.156191E-3,7.5634714E-4,-2.5234223E-4,-3.231874E-4,1.9233432E-3,7.26732E-4,-2.0169148E-3,2.6782714E-3,4.68269E-5],"split_indices":[47,152,0,94,134,7,17,149,114,76,155,20,37,36,78,5,64,28,0,0,12,91,0,0,0,12,49,0,0,108,27,0,0,0,0,0,3,99,45,0,94,155,124,31,0,37,0,0,0,0,0,0,0,0,0,0,0,0,0,0,0,0,0],"split_type":[0,0,0,0,0,0,0,0,0,0,0,0,0,0,0,0,0,0,0,0,0,0,0,0,0,0,0,0,0,0,0,0,0,0,0,0,0,0,0,0,0,0,0,0,0,0,0,0,0,0,0,0,0,0,0,0,0,0,0,0,0,0,0],"sum_hessian":[1.303E3,5.5E2,7.53E2,1.43E2,4.07E2,8.6E1,5.7E1,3.02E2,1.05E2,5.4E1,3.2E1,4E1,1.7E1,2.69E2,3.3E1,6.7E1,3.8E1,8E0,4.6E1,1.2E1,2E1,3.4E1,6E0,1.3E1,4E0,2.6E1,2.43E2,7E0,2.6E1,2.1E1,4.6E1,5E0,3.3E1,4E0,4E0,8E0,1.2E1,2E1,1.4E1,1.4E1,1.2E1,1.38E2,1.05E2,1.4E1,7E0,4.1E1,5E0,5E0,7E0,1.5E1,5E0,6E0,8E0,4E0,8E0,3.5E1,1.03E2,2.9E1,7.6E1,4E0,1E1,2.5E1,1.6E1],"tree_param":{"num_deleted":"0","num_feature":"156","num_nodes":"63","size_leaf_vector":"1"}},{"base_weights":[-5.5789477E-1,5.225225E-2,-2.9768934E-2,-2.1428572E-1,3.2616487E-1,-2.6170213E-2,-7.172996E-2,1.609756E-1,7.1794873E-1,-2.5925925E-1,1.509434E-1,-1.0344828E-1,2.7152318E-1,2.4E-2,-0E0,9.090909E-2,-3.773585E-1,-2.7272728E-1,2.7272728E-1,-4E-1,1.25E-1,4.1666666E-1,-0E0,-1.5789473E-1,4.4444445E-1,-4.4E-1,6E-3,-0E0,-4.4444445E-1,-1.3043478E-1,4.2028984E-1,-5.833333E-1,-0E0,3.0769232E-1,-6E-3,-0E0,5.25E-1,2E-1,-1.5151516E-1,-1.5E-2,2.7272727E-3,1.7142858E-2,-0E0,-1.6428571E-2,-0E0,-0E0,-1.7142858E-2,-1.2E-2,-0E0,-0E0,1.631579E-2,-0E0,-2.0526316E-2,-0E0,1.5E-2,6E-3,-8.571429E-3,1.8333333E-2,-0E0,1.173913E-2,-2.7272727E-3,7.5E-3,-9.310344E-3],"categories":[],"categories_nodes":[],"categories_segments":[],"categories_sizes":[],"default_left":[0,0,0,0,0,0,0,0,0,0,0,0,0,0,0,0,0,0,0,0,0,0,0,0,0,0,0,0,0,0,0,0,0,0,0,0,0,0,0,0,0,0,0,0,0,0,0,0,0,0,0,0,0,0,0,0,0,0,0,0,0,0,0],"id":23,"left_children":[1,3,-1,5,7,-1,9,11,13,15,17,19,21,-1,-1,23,25,27,29,31,33,35,37,39,41,43,-1,-1,45,47,49,51,-1,53,-1,55,57,59,61,-1,-1,-1,-1,-1,-1,-1,-1,-1,-1,-1,-1,-1,-1,-1,-1,-1,-1,-1,-1,-1,-1,-1,-1],"loss_changes":[3.565503E2,4.2975628E1,0E0,2.7047361E1,1.8047356E1,0E0,1.1623649E1,7.2969294E0,4.9230766E0,7.1290283E0,7.34477E0,6.3655167E0,6.11479E0,0E0,0E0,5.8022337E0,5.7162247E0,2.606061E0,7.1462436E0,4.1000004E0,3.8923073E0,5.8166656E0,3.3636365E0,4.3492823E0,1.523809E0,6.260952E0,0E0,0E0,1.523809E0,2.2869565E0,5.1655226E0,1.1315784E0,0E0,3.3076925E0,0E0,3.4857147E0,5.1833344E0,3.5415025E0,4.1708465E0,0E0,0E0,0E0,0E0,0E0,0E0,0E0,0E0,0E0,0E0,0E0,0E0,0E0,0E0,0E0,0E0,0E0,0E0,0E0,0E0,0E0,0E0,0E0,0E0],"parents":[2147483647,0,0,1,1,3,3,4,4,6,6,7,7,8,8,9,9,10,10,11,11,12,12,15,15,16,16,17,17,18,18,19,19,20,20,21,21,22,22,23,23,24,24,25,25,28,28,29,29,30,30,31,31,33,33,35,35,36,36,37,37,38,38],"right_children":[2,4,-1,6,8,-1,10,12,14,16,18,20,22,-1,-1,24,26,28,30,32,34,36,38,40,42,44,-1,-1,46,48,50,52,-1,54,-1,56,58,60,62,-1,-1,-1,-1,-1,-1,-1,-1,-1,-1,-1,-1,-1,-1,-1,-1,-1,-1,-1,-1,-1,-1,-1,-1],"split_conditions":[9.59E2,4.6967274E-1,-8.9406965E-10,1.0986123E0,4.8222727E-1,-3.0889704E-3,4.4315976E-1,3.295837E0,3.870416E3,-1.6509543E-1,4.51525E-1,7.736307E0,2E0,3.2847566E-3,1.7237081E-3,4.6682727E-1,9.825522E-1,5.9E1,8.2359746E-2,1.5588604E-1,6.23E0,-8.289638E-2,1E0,2.8332133E0,7.875976E-1,6.15049E-1,4.7826022E-4,3.755012E-4,4.8513332E-1,3.63E0,5.362604E-1,1.1E0,7.832184E-5,5.1494E-1,-1.6711414E-4,3E0,2.5268482E1,4.25E0,1E0,-4.9420604E-3,1.1823275E-3,1.7829438E-3,1.2603146E-3,-1.5621047E-3,2.2986075E-3,-1.3567167E-3,-4.2472407E-3,-1.5484594E-3,1.1176049E-4,-7.577464E-5,1.6505509E-3,-4.5916735E-5,-3.9151398E-4,-8.719861E-6,1.2469187E-3,1.662232E-4,-6.6116854E-4,2.0475693E-3,-9.0318914E-5,1.6916763E-3,-2.1789462E-4,4.194272E-3,-6.69035E-4],"split_indices":[48,153,0,155,153,0,37,97,62,35,148,75,52,0,0,152,42,13,40,85,22,35,58,97,84,118,0,0,120,22,96,11,0,142,0,7,55,22,7,0,0,0,0,0,0,0,0,0,0,0,0,0,0,0,0,0,0,0,0,0,0,0,0],"split_type":[0,0,0,0,0,0,0,0,0,0,0,0,0,0,0,0,0,0,0,0,0,0,0,0,0,0,0,0,0,0,0,0,0,0,0,0,0,0,0,0,0,0,0,0,0,0,0,0,0,0,0,0,0,0,0,0,0,0,0,0,0,0,0],"sum_hessian":[1.326E3,5.51E2,7.75E2,2.76E2,2.75E2,4.3E1,2.33E2,2.01E2,7.4E1,1.31E2,1.02E2,5.4E1,1.47E2,6.6E1,8E0,2.9E1,1.02E2,1.8E1,8.4E1,2.6E1,2.8E1,9.2E1,5.5E1,1.5E1,1.4E1,9.6E1,6E0,4E0,1.4E1,1.9E1,6.5E1,2E1,6E0,2.2E1,6E0,1.6E1,7.6E1,2.6E1,2.9E1,8E0,7E0,1E1,4E0,8E1,1.6E1,4E0,1E1,6E0,1.3E1,1.2E1,5.3E1,5E0,1.5E1,6E0,1.6E1,6E0,1E1,6.8E1,8E0,1.9E1,7E0,4E0,2.5E1],"tree_param":{"num_deleted":"0","num_feature":"156","num_nodes":"63","size_leaf_vector":"1"}},{"base_weights":[-5.5388093E-1,5.514706E-2,-9.74587E-1,-6.363636E-1,1.3590264E-1,-2.96927E-2,1.2E-2,-0E0,-7.3913044E-1,-1.9762846E-2,3.0327868E-1,-0E0,-3.3333332E-3,-2.4705881E-2,-2.5E-1,-3.783784E-1,1.14754096E-1,6.304348E-1,8.974359E-2,-0E0,-1.2E-2,-4.7826087E-1,1E-2,-1.1538462E-2,1.6091955E-1,7.011494E-1,-3.3333332E-3,-6.7961164E-2,4.0350878E-1,-0E0,-6.226415E-1,2.3076923E-1,-2.7272728E-1,5.882353E-2,7.837838E-1,-5E-1,3.6144577E-2,5.217391E-1,-0E0,6E-3,-1E-2,-0E0,-2.2173913E-2,9.280575E-3,-7.142857E-3,-0E0,-1.5E-2,-2.7272727E-3,1.2E-2,2.4626864E-2,2.7272727E-3,-0E0,-2.0526316E-2,4.7826087E-3,-1E-2,-0E0,1.8000001E-2,7.5E-3,-8.181818E-3],"categories":[],"categories_nodes":[],"categories_segments":[],"categories_sizes":[],"default_left":[0,0,0,0,0,0,0,0,0,0,0,0,0,0,0,0,0,0,0,0,0,0,0,0,0,0,0,0,0,0,0,0,0,0,0,0,0,0,0,0,0,0,0,0,0,0,0,0,0,0,0,0,0,0,0,0,0,0,0],"id":24,"left_children":[1,3,5,7,9,-1,-1,11,13,15,17,-1,-1,-1,19,21,23,25,27,-1,-1,29,-1,-1,31,33,-1,35,37,39,41,43,45,47,49,51,53,55,57,-1,-1,-1,-1,-1,-1,-1,-1,-1,-1,-1,-1,-1,-1,-1,-1,-1,-1,-1,-1],"loss_changes":[3.4396356E2,3.259227E1,2.0834473E1,3.268774E0,1.4184515E1,0E0,0E0,5.555556E-1,2.659855E-1,1.4799095E1,1.70466E1,0E0,0E0,0E0,1.2E0,7.9208775E0,5.742111E0,7.043316E0,1.0026925E1,0E0,0E0,5.342083E0,0E0,0E0,6.808617E0,3.3139992E0,0E0,7.505439E0,3.7139587E0,3.7333336E0,5.049221E0,7.4516554E0,3.272727E0,3.3604279E0,2.9278564E-1,3.6315784E0,5.4716253E0,2.1913033E0,3.409091E0,0E0,0E0,0E0,0E0,0E0,0E0,0E0,0E0,0E0,0E0,0E0,0E0,0E0,0E0,0E0,0E0,0E0,0E0,0E0,0E0],"parents":[2147483647,0,0,1,1,2,2,3,3,4,4,7,7,8,8,9,9,10,10,14,14,15,15,16,16,17,17,18,18,21,21,24,24,25,25,27,27,28,28,29,29,30,30,31,31,32,32,33,33,34,34,35,35,36,36,37,37,38,38],"right_children":[2,4,6,8,10,-1,-1,12,14,16,18,-1,-1,-1,20,22,24,26,28,-1,-1,30,-1,-1,32,34,-1,36,38,40,42,44,46,48,50,52,54,56,58,-1,-1,-1,-1,-1,-1,-1,-1,-1,-1,-1,-1,-1,-1,-1,-1,-1,-1,-1,-1],"split_conditions":[6.8211074E0,4.7393337E-1,4.87E-1,5.5E1,4.9527273E-1,-8.9406965E-10,3.076372E-3,7.9041205E2,1.3862944E0,4.7223637E-1,1.3862944E0,2.2070289E-4,-5.6901816E-3,-6.994138E-3,1.6310116E-2,6.5027356E-1,5.8717384E1,3.36E2,4.2176332E-2,-1.6677575E-3,-2.7665733E-3,5.4247016E-1,2.6979472E-3,-2.2742897E-4,3E0,4.8343638E-1,-2.201618E-3,4.9E1,7.6E1,9.675253E-2,1.9367112E-1,4.9564546E-1,8.1675E1,7.538813E0,7.3423904E1,6.588099E0,4.89E-1,4.738E-1,3E0,2.6482343E-5,-6.4552546E-4,8.5052845E-5,-1.2268067E-3,9.296554E-4,-6.028354E-5,3.3026485E-5,-4.9300655E-4,-1.0308534E-3,1.5270129E-3,3.4414458E-3,1.1716282E-3,3.529449E-3,-3.5037373E-3,4.7028958E-4,-4.6260487E-3,4.8877357E-4,1.841534E-3,6.776612E-3,-1.5394538E-4],"split_indices":[115,154,15,65,154,0,0,4,155,152,155,0,0,0,34,34,93,65,85,0,0,38,0,0,52,152,0,3,3,35,107,150,2,26,32,32,15,120,57,0,0,0,0,0,0,0,0,0,0,0,0,0,0,0,0,0,0,0,0],"split_type":[0,0,0,0,0,0,0,0,0,0,0,0,0,0,0,0,0,0,0,0,0,0,0,0,0,0,0,0,0,0,0,0,0,0,0,0,0,0,0,0,0,0,0,0,0,0,0,0,0,0,0,0,0,0,0,0,0,0,0],"sum_hessian":[1.323E3,5.4E2,7.83E2,5.1E1,4.89E2,7.77E2,6E0,9E0,4.2E1,2.49E2,2.4E2,4E0,5E0,3E1,1.2E1,7E1,1.79E2,8.8E1,1.52E2,6E0,6E0,6.5E1,5E0,9E0,1.7E2,8.3E1,5E0,9.9E1,5.3E1,1.6E1,4.9E1,1.52E2,1.8E1,1.3E1,7E1,2E1,7.9E1,4.2E1,1.1E1,1.1E1,5E0,7E0,4.2E1,1.35E2,1.7E1,6E0,1.2E1,7E0,6E0,6.3E1,7E0,5E0,1.5E1,6.5E1,1.4E1,6E0,3.6E1,4E0,7E0],"tree_param":{"num_deleted":"0","num_feature":"156","num_nodes":"59","size_leaf_vector":"1"}},{"base_weights":[-5.8066916E-1,9.041592E-3,-2.9698493E-2,-1.1578947E-1,7.5609756E-1,-4.820144E-1,2.9411765E-2,7.948718E-1,-0E0,-2.64E-2,-2.2580644E-1,-2.0689655E-2,3.3333334E-1,2.4999999E-2,-0E0,1.3636364E-2,-3.255814E-1,-2.2772278E-1,7.772021E-2,-7.692308E-2,4.6666667E-1,-4.177215E-1,8.181818E-3,-3.043478E-1,2.3076923E-1,1.6949153E-2,5E-1,-1E-2,-0E0,5.5E-1,-0E0,-1.7647059E-3,-1.7755102E-2,2.7272727E-3,-1.0941177E-2,-0E0,1E-2,1.5E-2,-1.775148E-4,-0E0,1.8749999E-2,-0E0,1.9411765E-2],"categories":[],"categories_nodes":[],"categories_segments":[],"categories_sizes":[],"default_left":[0,0,0,0,0,0,0,0,0,0,0,0,0,0,0,0,0,0,0,0,0,0,0,0,0,0,0,0,0,0,0,0,0,0,0,0,0,0,0,0,0,0,0],"id":25,"left_children":[1,3,-1,5,7,9,11,13,-1,-1,15,17,19,-1,-1,-1,21,23,25,27,29,31,-1,33,35,37,39,-1,-1,41,-1,-1,-1,-1,-1,-1,-1,-1,-1,-1,-1,-1,-1],"loss_changes":[3.282962E2,5.665264E1,0E0,2.7803205E1,2.5590973E0,1.366214E1,7.1284657E0,8.7179184E-1,0E0,0E0,8.864351E0,7.4183016E0,4.7179494E0,0E0,0E0,0E0,6.946184E0,5.2060003E0,5.64196E0,1.9487181E0,2.6333342E0,4.4278564E0,0E0,3.4801207E0,7.179489E-1,4.9109416E0,1.75E0,0E0,0E0,2.523529E0,0E0,0E0,0E0,0E0,0E0,0E0,0E0,0E0,0E0,0E0,0E0,0E0,0E0],"parents":[2147483647,0,0,1,1,3,3,4,4,5,5,6,6,7,7,10,10,11,11,12,12,16,16,17,17,18,18,19,19,20,20,21,21,23,23,24,24,25,25,26,26,29,29],"right_children":[2,4,-1,6,8,10,12,14,-1,-1,16,18,20,-1,-1,-1,22,24,26,28,30,32,-1,34,36,38,40,-1,-1,42,-1,-1,-1,-1,-1,-1,-1,-1,-1,-1,-1,-1,-1],"split_conditions":[1E0,4.8222727E-1,-8.9406965E-10,4.6884167E-1,4.9E2,1.0986123E0,2.8589E3,5.865761E2,1.8544882E-4,-3.0608273E-3,3.1931929E1,2.3025851E0,3.4608182E-1,3.5632146E-3,9.0681907E-4,4.1028767E-4,4.6474546E-1,9.180468E-1,2.3433333E2,4.9097273E-1,5.668455E-1,2.0736106E-1,8.2501174E-5,1.0898564E1,1.0015E3,5.423193E0,4E0,-8.583918E-4,1.5775224E-3,1.1E0,-3.4604876E-4,-8.1034494E-4,-2.7060735E-3,2.5687516E-5,-1.4192014E-4,-3.3043965E-4,1.7935573E-4,4.6223095E-3,-1.6370416E-6,9.275615E-5,2.5886E-3,-7.409736E-5,1.4175171E-3],"split_indices":[89,153,0,152,65,155,4,73,0,0,76,155,125,0,0,0,153,37,65,114,39,40,0,73,4,73,7,0,0,11,0,0,0,0,0,0,0,0,0,0,0,0,0],"split_type":[0,0,0,0,0,0,0,0,0,0,0,0,0,0,0,0,0,0,0,0,0,0,0,0,0,0,0,0,0,0,0,0,0,0,0,0,0,0,0,0,0,0,0],"sum_hessian":[1.341E3,5.49E2,7.92E2,4.71E2,7.8E1,1.35E2,3.36E2,7.4E1,4E0,4.6E1,8.9E1,2.86E2,5E1,6.8E1,6E0,7E0,8.2E1,9.7E1,1.89E2,9E0,4.1E1,7.5E1,7E0,8.8E1,9E0,1.73E2,1.6E1,5E0,4E0,3.6E1,5E0,3E1,4.5E1,7E0,8.1E1,4E0,5E0,8E0,1.65E2,4E0,1.2E1,6E0,3E1],"tree_param":{"num_deleted":"0","num_feature":"156","num_nodes":"43","size_leaf_vector":"1"}},{"base_weights":[-5.59633E-1,6.1682243E-2,-9.8713E-1,-0E0,6.363636E-1,-2.976714E-2,-0E0,-3.0120483E-1,5.6790125E-2,-0E0,7.1428573E-1,-7.288136E-1,5.714286E-1,-1.5384616E-1,1.3442624E-1,-0E0,2.4545453E-2,-2.6E-2,-1.1111111E-1,-0E0,2.1818181E-2,-2.9113925E-1,1.724138E-1,7.29927E-2,5.4285717E-1,6E-3,-1.5E-2,6.666667E-2,-3.8235295E-1,3.6363637E-1,-2.7272727E-3,-2.6086956E-1,1.4655173E-1,6.1290324E-1,-0E0,1.2E-2,-3.3333332E-3,2.7272727E-3,-1.4262294E-2,-0E0,1.5882354E-2,6.9230767E-3,-1.3783784E-2,7.792208E-4,1.0243902E-2,2.111111E-2,-0E0],"categories":[],"categories_nodes":[],"categories_segments":[],"categories_sizes":[],"default_left":[0,0,0,0,0,0,0,0,0,0,0,0,0,0,0,0,0,0,0,0,0,0,0,0,0,0,0,0,0,0,0,0,0,0,0,0,0,0,0,0,0,0,0,0,0,0,0],"id":26,"left_children":[1,3,5,7,9,-1,-1,11,13,-1,15,17,19,21,23,-1,-1,-1,25,-1,-1,27,29,31,33,-1,-1,35,37,39,-1,41,43,45,-1,-1,-1,-1,-1,-1,-1,-1,-1,-1,-1,-1,-1],"loss_changes":[3.5146954E2,2.2535938E1,3.9383545E0,1.0268272E1,3.0389614E0,0E0,0E0,3.6947872E1,7.59277E0,0E0,4.8701286E0,3.6790924E0,3.1168833E0,6.3355603E0,8.188358E0,0E0,0E0,0E0,5.5333333E0,0E0,0E0,3.9431634E0,3.2664578E0,7.991054E0,1.6110601E0,0E0,0E0,3.4222221E0,4.6724806E0,2.5187168E0,0E0,7.090121E0,5.565655E0,2.0884104E0,0E0,0E0,0E0,0E0,0E0,0E0,0E0,0E0,0E0,0E0,0E0,0E0,0E0],"parents":[2147483647,0,0,1,1,2,2,3,3,4,4,7,7,8,8,10,10,11,11,12,12,13,13,14,14,18,18,21,21,22,22,23,23,24,24,27,27,28,28,29,29,31,31,32,32,33,33],"right_children":[2,4,6,8,10,-1,-1,12,14,-1,16,18,20,22,24,-1,-1,-1,26,-1,-1,28,30,32,34,-1,-1,36,38,40,-1,42,44,46,-1,-1,-1,-1,-1,-1,-1,-1,-1,-1,-1,-1,-1],"split_conditions":[6.340191E-1,4.8052692E-1,1.9793443E-1,1.0986123E0,5.346818E-1,-8.9406965E-10,5.570711E-4,4.7705454E-1,4.4047272E-1,-2.2041409E-4,4.7911817E-1,4.704091E-1,4.8160416E-1,7.422126E-1,4.450016E0,-1.8616318E-5,3.792823E-3,-2.5981665E-3,4.7294545E-1,-1.0586678E-5,2.8541056E-3,7.0908246E0,9.15377E0,5.2E1,4.4709063E-1,3.9076207E-5,-1.302266E-4,1E0,1.1581249E0,6.8038505E-1,-9.136636E-3,-6.4E-2,2E0,9.194543E-1,7.84159E-4,1.0719094E-3,-1.1449714E-2,2.4974423E-3,-3.0975982E-3,-3.3566682E-4,3.0366038E-3,7.486671E-5,-9.4891543E-4,3.7052483E-5,7.975539E-4,2.3438178E-3,3.1357147E-3],"split_indices":[69,149,98,155,105,0,0,153,153,0,153,153,153,91,66,0,0,0,153,0,0,26,75,3,95,0,0,59,83,38,0,17,50,91,0,0,0,0,0,0,0,0,0,0,0,0,0],"split_type":[0,0,0,0,0,0,0,0,0,0,0,0,0,0,0,0,0,0,0,0,0,0,0,0,0,0,0,0,0,0,0,0,0,0,0,0,0,0,0,0,0,0,0,0,0,0,0],"sum_hessian":[1.304E3,5.31E2,7.73E2,4.8E2,5.1E1,7.69E2,4E0,7.9E1,4.01E2,6E0,4.5E1,5.5E1,2.4E1,1E2,3.01E2,5E0,4E1,4.1E1,1.4E1,6E0,1.8E1,7.5E1,2.5E1,2.7E2,3.1E1,6E0,8E0,1.1E1,6.4E1,1.8E1,7E0,4.2E1,2.28E2,2.7E1,4E0,6E0,5E0,7E0,5.7E1,5E0,1.3E1,9E0,3.3E1,1.5E2,7.8E1,2.3E1,4E0],"tree_param":{"num_deleted":"0","num_feature":"156","num_nodes":"47","size_leaf_vector":"1"}},{"base_weights":[-5.706806E-1,1.9677997E-2,-2.9769821E-2,-5.294118E-1,5.8601134E-2,-0E0,-1.9655172E-2,8.333334E-3,4.716981E-1,-2.647059E-1,1.2068965E-1,-2.3076923E-1,6.818182E-1,-7.317073E-2,-4.827586E-1,-1.4285715E-1,1.83391E-1,-0E0,-1E-2,2.2941176E-2,1.4285715E-1,-1.6153846E-2,-0E0,-5.555556E-1,-0E0,-1.5E-2,7.692308E-2,5.6818184E-2,3.5042736E-1,1.2E-2,-0E0,-2.4590164E-3,1.12499995E-2,-0E0,-2.0232558E-2,8.709677E-3,-1E-2,1.4444444E-2,-1.9607843E-4,-4.2857146E-3,1.26168225E-2],"categories":[],"categories_nodes":[],"categories_segments":[],"categories_sizes":[],"default_left":[0,0,0,0,0,0,0,0,0,0,0,0,0,0,0,0,0,0,0,0,0,0,0,0,0,0,0,0,0,0,0,0,0,0,0,0,0,0,0,0,0],"id":27,"left_children":[1,3,-1,5,7,-1,-1,9,11,13,15,17,19,21,23,25,27,-1,-1,-1,29,-1,31,33,-1,-1,35,37,39,-1,-1,-1,-1,-1,-1,-1,-1,-1,-1,-1,-1],"loss_changes":[3.3659845E2,1.3402929E1,0E0,3.4219055E0,1.1694871E1,0E0,0E0,1.6073294E1,1.1117959E1,5.5917463E0,6.7587066E0,7.179489E-1,6.1650467E-1,5.19137E0,3.4406128E0,7.6813188E0,6.1113987E0,0E0,0E0,0E0,2.3428571E0,0E0,4.4877048E0,3.3669243E0,0E0,0E0,5.902398E0,7.4224095E0,5.6953897E0,0E0,0E0,0E0,0E0,0E0,0E0,0E0,0E0,0E0,0E0,0E0,0E0],"parents":[2147483647,0,0,1,1,3,3,4,4,7,7,8,8,9,9,10,10,11,11,12,12,13,13,14,14,15,15,16,16,20,20,22,22,23,23,26,26,27,27,28,28],"right_children":[2,4,-1,6,8,-1,-1,10,12,14,16,18,20,22,24,26,28,-1,-1,-1,30,-1,32,34,-1,-1,36,38,40,-1,-1,-1,-1,-1,-1,-1,-1,-1,-1,-1,-1],"split_conditions":[3E0,4.7393262E-1,-8.9406965E-10,4.8238E-1,4.9375832E-1,3.6582202E-4,-4.8780465E-3,4.7250625E-1,5.260591E-1,8.061185E1,4.738E-1,3.442701E1,5.5174527E0,1.184E2,4E0,4.9623042E-1,4.8335832E-1,-1.0931669E-3,-1.9848444E-3,3.5402628E-3,5.7468086E-1,-3.8399496E-3,9.0763074E-1,3.8343087E-1,1.6853213E-5,-9.6361886E-4,4.4685444E-1,1E0,3.3672957E0,2.8919005E-3,-2.1074405E-3,-2.7355045E-4,5.425747E-4,-2.5319632E-3,-7.180694E-4,1.2037074E-3,-7.913026E-3,1.5259158E-3,-2.6991963E-6,-1.2220322E-3,1.5518832E-3],"split_indices":[47,150,0,116,112,0,0,148,96,3,124,3,111,14,51,132,148,0,0,0,142,0,37,141,0,0,33,7,111,0,0,0,0,0,0,0,0,0,0,0,0],"split_type":[0,0,0,0,0,0,0,0,0,0,0,0,0,0,0,0,0,0,0,0,0,0,0,0,0,0,0,0,0,0,0,0,0,0,0,0,0,0,0,0,0],"sum_hessian":[1.333E3,5.55E2,7.78E2,3E1,5.25E2,5E0,2.5E1,4.76E2,4.9E1,1.32E2,3.44E2,9E0,4E1,7.8E1,5.4E1,5.9E1,2.85E2,4E0,5E0,3E1,1E1,9E0,6.9E1,5E1,4E0,2.4E1,3.5E1,1.72E2,1.13E2,6E0,4E0,5.7E1,1.2E1,1.1E1,3.9E1,2.7E1,8E0,2.3E1,1.49E2,1E1,1.03E2],"tree_param":{"num_deleted":"0","num_feature":"156","num_nodes":"41","size_leaf_vector":"1"}},{"base_weights":[-5.696784E-1,4.2990655E-2,-2.9767742E-2,-6.4935066E-2,7.1428573E-1,-6.666667E-1,9.708738E-3,7.777778E-1,-0E0,-5.882353E-2,-2.414634E-2,-2.5581396E-1,8.4848486E-2,2.53125E-2,-0E0,-0E0,-8.181818E-3,-1.0144927E-1,-1.8571429E-2,-1.6153846E-2,1.15264796E-1,7.5E-3,-0E0,1.8181819E-1,-2.5490198E-1,5.3846157E-1,7.023411E-2,1.2857143E-2,-0E0,-1.3076923E-2,3.75E-3,-0E0,2.0526316E-2,7.310924E-3,-9.782609E-4],"categories":[],"categories_nodes":[],"categories_segments":[],"categories_sizes":[],"default_left":[0,0,0,0,0,0,0,0,0,0,0,0,0,0,0,0,0,0,0,0,0,0,0,0,0,0,0,0,0,0,0,0,0,0,0],"id":28,"left_children":[1,3,-1,5,7,9,11,13,-1,15,-1,17,19,-1,21,-1,-1,23,-1,-1,25,-1,-1,27,29,31,33,-1,-1,-1,-1,-1,-1,-1,-1],"loss_changes":[3.4205673E2,4.3189907E1,0E0,2.4536543E1,4.5238037E0,3.40794E0,9.288644E0,2.2708359E0,0E0,1.6149733E0,0E0,4.98859E0,7.933782E0,0E0,1.5E0,0E0,0E0,4.6719375E0,0E0,0E0,6.7223034E0,0E0,0E0,2.8311687E0,5.570511E0,1.939271E0,6.6122513E0,0E0,0E0,0E0,0E0,0E0,0E0,0E0,0E0],"parents":[2147483647,0,0,1,1,3,3,4,4,5,5,6,6,7,7,9,9,11,11,12,12,14,14,17,17,20,20,23,23,24,24,25,25,26,26],"right_children":[2,4,-1,6,8,10,12,14,-1,16,-1,18,20,-1,22,-1,-1,24,-1,-1,26,-1,-1,28,30,32,34,-1,-1,-1,-1,-1,-1,-1,-1],"split_conditions":[3E0,4.8222727E-1,-8.9406965E-10,4.7393337E-1,5.1798105E3,4.2746618E-1,2.15E1,2.2746024E-1,-5.144048E-4,7.1739564E0,-5.713383E-3,6.2576675E0,4.6144167E-1,3.1207965E-3,-6.800126E-1,1.6993716E-4,-4.731705E-3,4.8E0,-5.198264E-4,-5.795945E-3,2.3978953E0,7.5463965E-3,-1.4356998E-3,3.637586E0,1.68E1,2.7725887E0,2E0,3.8415044E-5,-1.3584092E-4,-1.1238366E-4,1.1910264E-3,2.1435525E-3,3.391671E-3,5.8309437E-4,-5.2265525E-5],"split_indices":[47,153,0,154,62,153,11,92,0,26,0,27,112,0,34,0,0,11,0,0,111,0,0,102,11,97,18,0,0,0,0,0,0,0,0],"split_type":[0,0,0,0,0,0,0,0,0,0,0,0,0,0,0,0,0,0,0,0,0,0,0,0,0,0,0,0,0,0,0,0,0,0,0],"sum_hessian":[1.302E3,5.31E2,7.71E2,4.58E2,7.3E1,5E1,4.08E2,6.8E1,5E0,1.3E1,3.7E1,8.2E1,3.26E2,6E1,8E0,6E0,7E0,6.5E1,1.7E1,9E0,3.17E2,4E0,4E0,1.8E1,4.7E1,2.2E1,2.95E2,1E1,8E0,3.5E1,1.2E1,7E0,1.5E1,1.15E2,1.8E2],"tree_param":{"num_deleted":"0","num_feature":"156","num_nodes":"35","size_leaf_vector":"1"}},{"base_weights":[-5.715367E-1,1.4440433E-2,-2.9766535E-2,-6.2068963E-1,9.2E-2,-0E0,-2.16E-2,5.6842104E-2,5.862069E-1,-8.552632E-2,3.1428573E-1,-0E0,2.2499999E-2,-1.598513E-1,3.846154E-1,2.2499999E-2,1.6546762E-1,-4.9367088E-1,-1.0309278E-2,5.625E-1,-2.7272727E-3,4.4444445E-1,-0E0,-0E0,-2.111111E-2,-1.3636364E-2,1.0227272E-3,2.0769231E-2,-0E0,1.68E-2,-7.5E-3,-6E-3,1E-2],"categories":[],"categories_nodes":[],"categories_segments":[],"categories_sizes":[],"default_left":[0,0,0,0,0,0,0,0,0,0,0,0,0,0,0,0,0,0,0,0,0,0,0,0,0,0,0,0,0,0,0,0,0],"id":29,"left_children":[1,3,-1,5,7,-1,-1,9,11,13,15,-1,-1,17,19,-1,21,23,25,27,-1,29,31,-1,-1,-1,-1,-1,-1,-1,-1,-1,-1],"loss_changes":[3.293925E2,2.9254303E1,0E0,3.972414E0,9.47245E0,0E0,0E0,1.934654E1,4.1896544E0,1.2254914E1,1.142477E1,0E0,0E0,1.377669E1,5.5218525E0,0E0,7.9768176E0,8.327707E0,6.642689E0,2.8557692E0,0E0,6.9755545E0,8.2E0,0E0,0E0,0E0,0E0,0E0,0E0,0E0,0E0,0E0,0E0],"parents":[2147483647,0,0,1,1,3,3,4,4,7,7,8,8,9,9,10,10,13,13,14,14,16,16,17,17,18,18,19,19,21,21,22,22],"right_children":[2,4,-1,6,8,-1,-1,10,12,14,16,-1,-1,18,20,-1,22,24,26,28,-1,30,32,-1,-1,-1,-1,-1,-1,-1,-1,-1,-1],"split_conditions":[9.02E2,4.7298846E-1,-8.9406965E-10,3.1931929E1,4.7525713E-1,-1.9159213E-3,-4.823413E-3,4.810909E-1,5.022526E-1,7E0,4.607162E0,-1.5787053E-3,3.9836937E-3,1.9E1,2E0,4.508372E-3,5.7462034E0,1.3933333E2,4.495348E0,8.6821995E0,-1.7945498E-4,4.9E2,5.098456E-1,-5.1705836E-5,-1.3087584E-3,-2.6377558E-4,3.6032794E-5,2.0209444E-3,-3.7920177E-5,2.9683702E-3,-2.1159714E-3,-9.8651646E-5,1.6941117E-3],"split_indices":[49,154,0,76,113,0,0,152,96,25,28,0,0,0,49,0,119,65,28,75,0,65,39,0,0,0,0,0,0,0,0,0,0],"split_type":[0,0,0,0,0,0,0,0,0,0,0,0,0,0,0,0,0,0,0,0,0,0,0,0,0,0,0,0,0,0,0,0,0],"sum_hessian":[1.317E3,5.5E2,7.67E2,5.4E1,4.96E2,8E0,4.6E1,4.71E2,2.5E1,3E2,1.71E2,5E0,2E1,2.65E2,3.5E1,3.6E1,1.35E2,7.5E1,1.9E2,2.8E1,7E0,5E1,8.5E1,2.5E1,5E1,1.8E1,1.72E2,2.2E1,6E0,4.6E1,4E0,5.6E1,2.9E1],"tree_param":{"num_deleted":"0","num_feature":"156","num_nodes":"33","size_leaf_vector":"1"}},{"base_weights":[-5.699088E-1,3.142329E-2,-9.87163E-1,-1.1442786E-1,4.5454547E-1,-2.9767742E-2,-0E0,-4.1269842E-1,1.4285714E-2,1.3953489E-1,2.5081968E-2,-5.151515E-1,-0E0,-3.2E-2,4.117647E-1,2.1818181E-2,-2.9411765E-2,-6.1904764E-1,-0E0,2.631579E-1,-3.75E-1,4.040404E-2,-3.2142857E-1,1.8000001E-2,-0E0,-4.4444445E-1,7.4074075E-2,-0E0,-6.923077E-1,1.5E-2,-1.3636364E-2,1.6153846E-2,-0E0,-1.5E-2,-0E0,1.5789473E-1,-2.8E-1,1E-2,-4.509804E-1,3.3333332E-3,-7.5E-3,-0E0,-1.7142858E-2,4.1666666E-1,-1.1764706E-1,-5.2941176E-3,-2.2615384E-2,7.0212763E-3,-1.39999995E-2,2.7272727E-3,-1.1860465E-2,-0E0,-1.9411765E-2,1.6666668E-2,-0E0,-1.2857143E-2,5.2941176E-3],"categories":[],"categories_nodes":[],"categories_segments":[],"categories_sizes":[],"default_left":[0,0,0,0,0,0,0,0,0,0,0,0,0,0,0,0,0,0,0,0,0,0,0,0,0,0,0,0,0,0,0,0,0,0,0,0,0,0,0,0,0,0,0,0,0,0,0,0,0,0,0,0,0,0,0,0,0],"id":30,"left_children":[1,3,5,7,9,-1,-1,11,13,15,-1,17,19,21,23,-1,25,27,29,31,33,35,37,-1,39,41,43,-1,45,-1,-1,-1,-1,-1,-1,47,49,-1,51,-1,-1,-1,-1,53,55,-1,-1,-1,-1,-1,-1,-1,-1,-1,-1,-1,-1],"loss_changes":[3.3402567E2,3.6425137E1,3.9384155E0,1.7504004E1,1.6852533E1,0E0,0E0,5.2222233E0,7.6814785E0,1.2489368E1,0E0,6.333334E0,6.118421E0,7.172277E0,3.988237E0,0E0,5.749456E0,5.4871826E0,9.090909E0,3.554656E0,1.25E0,8.976204E0,7.4383755E0,0E0,2.0555556E0,1.523809E0,6.181917E0,0E0,1.0352936E0,0E0,0E0,0E0,0E0,0E0,0E0,9.371856E0,3.7168713E0,0E0,4.6470604E0,0E0,0E0,0E0,0E0,1.9444447E0,5.865546E0,0E0,0E0,0E0,0E0,0E0,0E0,0E0,0E0,0E0,0E0,0E0,0E0],"parents":[2147483647,0,0,1,1,2,2,3,3,4,4,7,7,8,8,9,9,11,11,12,12,13,13,14,14,16,16,17,17,18,18,19,19,20,20,21,21,22,22,24,24,25,25,26,26,28,28,35,35,36,36,38,38,43,43,44,44],"right_children":[2,4,6,8,10,-1,-1,12,14,16,-1,18,20,22,24,-1,26,28,30,32,34,36,38,-1,40,42,44,-1,46,-1,-1,-1,-1,-1,-1,48,50,-1,52,-1,-1,-1,-1,54,56,-1,-1,-1,-1,-1,-1,-1,-1,-1,-1,-1,-1],"split_conditions":[6.340191E-1,4.8623332E-1,6.2576675E0,4.68325E-1,4.875182E-1,-8.9406965E-10,5.15171E-4,6.25E-1,7E0,2.50914E-3,4.255065E-3,6.1E1,5.5174527E0,6.2690964E0,5.1494E-1,4.409475E-3,4.738E-1,3.0710173E0,1.3051824E1,8.0756966E1,1.030964E-1,7.9E1,3.9808E-1,2.971301E-3,1.1E1,6.4079136E-1,4.3314666E-1,5.042696E-3,4.7300334E0,3.2712892E-4,-4.904884E-4,2.2183638E-3,-7.2221514E-3,-4.4134366E-3,-4.1555284E-4,7E0,-9.1E-2,2.8069317E-5,-6.897995E-1,9.083408E-4,-1.1193546E-3,-1.0484831E-3,-2.0767674E-3,6.79075E-1,2.8496712E-2,-2.0187316E-3,-2.302451E-3,5.090958E-4,-2.4391472E-4,1.7371237E-4,-1.5476167E-4,-8.412748E-5,-4.4802323E-4,7.0123617E-3,2.2946119E-4,-2.7138893E-3,3.1103913E-3],"split_indices":[69,152,27,152,153,0,0,15,25,79,0,20,111,27,146,0,124,55,55,2,37,3,145,0,0,38,39,0,28,0,0,0,0,0,0,50,17,0,37,0,0,0,0,150,85,0,0,0,0,0,0,0,0,0,0,0,0],"split_type":[0,0,0,0,0,0,0,0,0,0,0,0,0,0,0,0,0,0,0,0,0,0,0,0,0,0,0,0,0,0,0,0,0,0,0,0,0,0,0,0,0,0,0,0,0,0,0,0,0,0,0,0,0,0,0,0,0],"sum_hessian":[1.312E3,5.37E2,7.75E2,3.98E2,1.39E2,7.71E2,4E0,1.22E2,2.76E2,8.2E1,5.7E1,9.5E1,2.7E1,2.46E2,3E1,1.8E1,6.4E1,8E1,1.5E1,1.5E1,1.2E1,1.94E2,5.2E1,2.1E1,9E0,1.4E1,5E1,6E0,7.4E1,8E0,7E0,9E0,6E0,8E0,4E0,1.48E2,4.6E1,5E0,4.7E1,5E0,4E0,4E0,1E1,2E1,3E1,1.3E1,6.1E1,1.37E2,1.1E1,7E0,3.9E1,1.7E1,3E1,1.4E1,6E0,1.7E1,1.3E1],"tree_param":{"num_deleted":"0","num_feature":"156","num_nodes":"57","size_leaf_vector":"1"}},{"base_weights":[-5.613772E-1,-9.74587E-1,2.7124774E-2,-2.9691912E-2,1.6666667E-1,-8.438819E-2,6.86747E-1,7.5E-3,-0E0,-6.3265306E-1,-1.6317016E-2,-0E0,7.468355E-1,-0E0,-7.619048E-1,-6.426735E-2,3.6363637E-1,8.055556E-1,-0E0,-2.4999999E-2,-0E0,-1.19760476E-1,2.2033899E-1,4.857143E-1,-0E0,2.625E-2,-0E0,-2.3756906E-1,6.369427E-3,-1.1538462E-2,4E-1,-0E0,6.551724E-1,-7.5E-3,3.3333332E-3,-0E0,7.5E-3,-1.4444444E-2,-5.769231E-4,2.0547945E-3,-1.39999995E-2,-0E0,2.0769231E-2,-0E0,2.2799999E-2],"categories":[],"categories_nodes":[],"categories_segments":[],"categories_sizes":[],"default_left":[0,0,0,0,0,0,0,0,0,0,0,0,0,0,0,0,0,0,0,0,0,0,0,0,0,0,0,0,0,0,0,0,0,0,0,0,0,0,0,0,0,0,0,0,0],"id":31,"left_children":[1,3,5,-1,7,9,11,-1,-1,13,15,-1,17,-1,19,21,23,25,-1,-1,-1,27,29,31,33,-1,35,37,39,-1,41,-1,43,-1,-1,-1,-1,-1,-1,-1,-1,-1,-1,-1,-1],"loss_changes":[3.286435E2,1.663446E1,4.508928E1,0E0,5E-1,1.8609262E1,5.159069E0,0E0,0E0,